tree
version=v3
num_class=1
num_tree_per_iteration=1
label_index=0
max_feature_idx=26
objective=binary sigmoid:1
feature_names=meanencodeACTIVITYNAME meanencodeSECTORNAME meanencodeCOUNTRYNAME meanencodeCURRENCY meanencodeBORROWERGENDERS meanencodeREPAYMENTINTERVAL meanencodeORIGINALLANGUAGE meanencodeDISTRIBUTIONMODEL meanencodeTAGS LENDERTERM LOANAMOUNT LOANPROGRESSSCORE LOANNAMEcharcount DESCRIPTIONcharcount LOANUSEcharcount DESCRIPTIONwordcount DESCRIPTIONworddensity DESCRIPTIONpunctuationcount LOANUSEwordcount LOANUSEworddensity LOANUSEpunctuationcount DESCRIPTIONtitlewordcount DESCRIPTIONuppercasewordcount DESCRIPTIONstopwordcount LOANUSEtitlewordcount LOANUSEuppercasewordcount LOANUSEstopwordcount
feature_infos=[0.89235412474849085:0.99981454005934722] [0.91822927542284416:0.99824244250276184] [0.80553039908229185:1] [0.84177362893815633:1] [0.88323386588575448:0.9717044388847651] [0.9345212585993008:0.95688538721926597] [0.91518401169875707:0.98135519231701995] [0.83433320220298979:0.95541448676058283] [0.95418060167149898:0.95418060167149898] [2:59] [50:4125] [0.00010582010582010582:0.040000000000000001] [3:33] [183:1987] [15:162] [31:345] [4.65625:7.1487603305785132] [3:76] [2:31] [3:6.5833333333333321] [0:10] [0:39] [0:13] [0:161] [0:7] [0:6] [0:15]
tree_sizes=6743 6845 7103 6910 6837 6809 6971 7136 7046 7157 7123 7146 6935 7130 7002 7022 7026 7122 7020 6972 7018 7090 6986 6896

Tree=0
num_leaves=64
num_cat=0
split_feature=11 9 11 11 10 10 11 9 22 24 11 11 2 24 2 10 10 4 22 10 10 2 24 10 9 22 9 2 10 4 9 11 4 6 10 4 9 2 4 21 6 10 4 10 3 9 4 10 9 1 24 2 24 6 0 9 24 10 23 21 2 10 4
split_gain=553358 182497 40583.6 28408.3 16520.5 13849.2 7346.8 7057.94 4834.96 3674.18 3155.78 2958.27 2431.46 2294.08 1529.34 1489.28 1442.61 1416.95 1232.82 843.855 694.676 680.982 672.773 605.226 623.657 603.995 571.802 559.648 519.841 465.624 478.168 454.481 449.559 444.779 401.2 361.146 342.638 317.294 297.788 292.398 285.333 402.96 272.591 264.727 251.57 575.538 422.339 248.247 240.134 226.918 201.238 182.027 181.958 157.016 153.561 142.867 124.331 119.637 116.762 113.797 108.74 103.107 98.8932
threshold=0.00053342816500711254 8.5000000000000018 0.00031291296190553882 0.00073661240858693088 487.50000000000006 487.50000000000006 0.00044971946688373735 9.5000000000000018 3.5000000000000004 1.0000000180025095e-35 0.00062361111111111124 0.00094900619094167497 0.93913894551071497 1.0000000180025095e-35 0.85970715492245298 312.50000000000006 487.50000000000006 0.93244248982950706 3.5000000000000004 312.50000000000006 637.50000000000011 0.96927977929545761 1.0000000180025095e-35 1162.5000000000002 7.5000000000000009 2.5000000000000004 9.5000000000000018 0.99155486690375527 262.50000000000006 0.93244248982950706 7.5000000000000009 0.00081728993721800287 0.93244248982950706 0.94013321035826614 262.50000000000006 0.93244248982950706 12.500000000000002 0.85970715492245298 0.93244248982950706 22.500000000000004 0.94013321035826614 562.50000000000011 0.93244248982950706 262.50000000000006 0.9797581813409072 7.5000000000000009 0.97102824610414362 487.50000000000006 11.500000000000002 0.94949024291666217 1.0000000180025095e-35 0.85970715492245298 1.0000000180025095e-35 0.92611184933736068 0.99441064025272474 11.500000000000002 1.0000000180025095e-35 637.50000000000011 38.500000000000007 17.500000000000004 0.99155486690375527 662.50000000000011 0.93244248982950706
decision_type=2 2 2 2 2 2 2 2 2 2 2 2 2 2 2 2 2 2 2 2 2 2 2 2 2 2 2 2 2 2 2 2 2 2 2 2 2 2 2 2 2 2 2 2 2 2 2 2 2 2 2 2 2 2 2 2 2 2 2 2 2 2 2
left_child=1 12 4 7 17 15 8 42 13 27 16 26 23 20 -10 38 43 34 22 -12 -7 -11 48 -1 -25 50 -5 54 -19 30 -14 47 53 -26 -3 -21 -30 -20 -4 60 -32 -42 -2 -9 45 -31 -47 -28 -8 -37 -18 -27 -16 -17 -6 -34 -39 -44 -59 -24 -15 -51 -49
right_child=3 2 5 11 9 6 18 10 14 21 19 -13 29 39 52 32 25 28 37 35 -22 -23 59 24 33 51 31 -29 36 44 40 -33 55 -35 -36 49 -38 56 -40 -41 41 -43 57 -45 -46 46 -48 62 -50 61 -52 -53 -54 -55 -56 -57 -58 58 -60 -61 -62 -63 -64
leaf_value=3.0374535718435434 2.9780510006448249 2.9832725223419621 2.8617118557094718 3.0781275488121183 2.1445316211536949 2.5160809348342585 2.7855898984176535 3.0476181429959595 3.0354978860512927 2.4135057033380614 3.0433836811705079 3.0873157429889577 3.0694300077722478 2.6237106772592798 2.5882928635272435 3.0215534928345296 2.7534815665102168 3.0251914249900422 3.0498111041597245 2.8872254117169422 2.2919588205355264 2.8770235655080514 2.7845268008143571 2.9296291260495 3.0354978860512927 3.0523571336977957 3.0433721239118716 2.9710875103508507 2.9528084828257466 3.0787505364638723 3.0354978860512927 3.0484899257862543 2.9634070496531124 2.5278024398808201 2.4508822635388534 2.9161372095083187 2.699576581721657 2.783022509744483 3.0201685074400846 3.0064252462566765 3.0354978860512927 2.678150314800821 3.0844514961848506 2.9141065047882999 3.0812563695080768 2.8364922679464781 3.059731842826058 2.9737472088968668 2.5674948271676254 3.0077290604535447 2.8866236147963198 2.896819597679706 2.9901787855286464 2.6256195247706922 3.0020269132430353 2.8014061024563119 3.0354978860512927 3.0602742935958842 2.9898574712535844 3.0073729673832328 3.0354978860512927 2.9540752001797834 3.0104482334093312
leaf_weight=20.21051524579525 83.073091886937618 6.9555669352412215 36.527662836015224 933.83954318612814 1614.5226973518729 166.75862362980843 57.394363641738892 40.246047675609589 39.633607819676399 188.80645844340324 159.0156340226531 56899.774712368846 40.02731915563345 93.134603805840015 35.783985868096352 4.6807903274893752 566.59435814619064 21.479140661656857 20.822955101728439 482.20889513939619 644.28672844171524 18.329449974000454 63.256287977099419 38.802439443767071 5.8181786313653019 18.81065271794796 379.05652511864901 4.3308246955275527 27.559793516993523 151.09766159951687 12.817491270601748 2037.0187065377831 32.765532292425632 24.322611421346664 75.592576503753662 366.23903384804726 98.734053917229176 22.222817629575733 99.608967997133732 8.7053950950503332 10.105257622897627 17.148315966129303 446.38116356730461 173.97666478902102 1017.0876178890467 45.583023563027382 28.128487668931484 330.54253938794136 459.67985758185387 179.26989497244358 77.561133183538914 65.22484465688467 7.1305497512221327 74.848899535834789 1.9248109757900227 145.06075444817543 6.9993126392364493 222.53439622372389 67.762095488607883 12.030068598687647 2.2747766077518454 269.64851942658424 536.45356809347868
leaf_count=462 1899 159 835 21347 36907 3812 1312 920 906 4316 3635 1300694 915 2129 818 107 12952 491 476 11023 14728 419 1446 887 133 430 8665 99 630 3454 293 46565 749 556 1728 8372 2257 508 2277 199 231 392 10204 3977 23250 1042 643 7556 10508 4098 1773 1491 163 1711 44 3316 160 5087 1549 275 52 6164 12263
internal_value=3.0355 2.55474 2.386 3.07669 2.22805 2.54916 2.48508 2.93214 2.39665 2.17699 2.88899 3.08432 3.04496 2.36297 2.80509 2.8239 2.81756 2.65317 2.63048 2.93656 2.33085 2.44418 2.60982 2.80628 2.74368 2.78375 3.04382 2.14683 2.77908 3.06284 2.95334 3.03404 2.75455 2.59653 2.48255 2.92331 2.74288 2.9093 2.96696 2.65523 2.84876 2.77856 3.05834 2.93973 3.07071 3.02413 2.91739 3.0103 2.58603 2.9465 2.76661 2.93238 2.62916 2.64197 2.14519 2.8245 2.82468 3.06838 3.04203 2.80973 2.63136 2.97388 2.99563
internal_weight=0 5502.99 4091.84 64335.2 2058.24 2033.61 1640.11 3218.55 997.708 1827.91 2398.8 61116.7 1411.15 915.16 82.5481 393.493 942.414 230.321 642.406 1456.38 811.045 207.136 592.361 89.1537 68.9432 728.191 4216.91 1620.78 147.773 1322 80.0984 3283.07 257.356 30.1408 82.5481 1297.37 126.294 50.0451 136.137 104.115 40.0711 27.2536 819.751 214.223 1241.9 224.809 73.7115 1246.05 517.074 815.157 644.155 84.0355 42.9145 79.5297 1616.45 177.826 29.2221 736.678 290.296 75.2864 95.4094 448.918 866.996
internal_count=1596459 125795 93537 1470664 47050 46487 37492 73574 22807 41785 54835 1397090 32258 20920 1887 8995 21543 5265 14685 33292 18540 4735 13541 2038 1576 16646 96396 37050 3378 30220 1831 75049 5883 689 1887 29657 2887 1144 3112 2380 916 623 18739 4897 28389 5139 1685 28484 11820 18634 14725 1921 981 1818 36951 4065 668 16840 6636 1721 2181 10262 19819
is_linear=0
shrinkage=1


Tree=1
num_leaves=64
num_cat=0
split_feature=11 2 11 11 4 10 4 3 10 10 23 10 6 11 11 11 22 10 10 4 10 2 3 11 10 21 10 10 4 13 4 2 10 2 24 24 11 17 0 3 22 0 21 22 10 1 10 26 4 1 4 12 6 24 3 26 22 2 10 1 4 11 18
split_gain=327966 42037.9 13844.3 10794.5 5870.7 4077.01 2527.03 1746.82 1503.78 1359.27 1186.19 1028.1 1011.11 996.412 996.145 834.703 809.104 701.477 645.098 558.81 534.297 512.983 478.523 440.62 417.908 411.153 379.728 360.75 344.728 283.267 266.334 258.472 370.325 258.279 256.684 245.337 240.099 212.574 189.697 181.382 175.764 156.76 150.709 142.296 140.929 140.306 137.385 120.064 117.226 115.821 113.629 107.264 108.323 106.644 102.153 100.225 99.4667 99.3907 98.9643 92.4472 91.8098 91.5681 90.1402
threshold=0.00062361111111111124 0.98058708461583255 0.00044971946688373735 0.00081728993721800287 0.93244248982950706 262.50000000000006 0.93244248982950706 0.97444074757672228 387.50000000000006 437.50000000000006 35.500000000000007 387.50000000000006 0.97027812234362443 0.00053342816500711254 0.00094900619094167497 0.00073661240858693088 5.5000000000000009 437.50000000000006 662.50000000000011 0.97102824610414362 775.00000000000011 0.96324663557258572 0.92333436663740065 1.0000000180025095e-35 3625.0000000000005 26.000000000000004 312.50000000000006 2912.5000000000005 0.93244248982950706 724.50000000000011 0.93244248982950706 0.98227503722660325 662.50000000000011 0.99155486690375527 1.0000000180025095e-35 1.0000000180025095e-35 0.00066796729840208114 48.500000000000007 0.99307561582971982 0.97731888320208948 1.5000000000000002 0.96973409257727827 2.5000000000000004 5.5000000000000009 437.50000000000006 0.9957278935528775 312.50000000000006 1.0000000180025095e-35 0.93244248982950706 0.94949024291666217 0.93244248982950706 29.000000000000004 0.94013321035826614 1.0000000180025095e-35 0.97444074757672228 2.5000000000000004 1.5000000000000002 0.85970715492245298 262.50000000000006 0.98961820679910362 0.93244248982950706 0.0010847390157734988 3.5000000000000004
decision_type=2 2 2 2 2 2 2 2 2 2 2 2 2 2 2 2 2 2 2 2 2 2 2 2 2 2 2 2 2 2 2 2 2 2 2 2 2 2 2 2 2 2 2 2 2 2 2 2 2 2 2 2 2 2 2 2 2 2 2 2 2 2 2
left_child=1 2 5 7 17 -1 25 15 30 23 19 49 16 24 60 26 20 -3 40 -11 21 41 -18 -6 35 45 -2 34 -9 31 -4 -21 -33 43 54 -10 53 42 -22 -14 -12 -13 -19 51 -30 -7 -25 -37 -17 -8 -38 52 -20 -28 -15 -23 -36 -26 -32 -44 -5 -16 -41
right_child=3 4 8 14 9 6 11 28 13 10 18 12 39 27 61 48 22 37 33 29 38 55 -24 46 57 -27 36 -29 44 -31 58 32 -34 -35 56 47 50 -39 -40 62 -42 -43 59 -45 -46 -47 -48 -49 -50 -51 -52 -53 -54 -55 -56 -57 -58 -59 -60 -61 -62 -63 -64
leaf_value=0 0 -0.032270055634318229 -0.1401041171900744 0.0047578040482482362 -0.2534787000765128 -0.4016466583609174 -0.19749266017074682 -0.058018382387251058 -0.27753557580246607 0.019592797276916131 -0.14059515015000487 -0.31701223237339571 -0.048557935580604152 -0.20327170602299441 0.04195270721433398 -0.04892625881415192 -0.015802927158252211 -0.076285173806473441 0 0.021017917499726806 -0.36509757815331834 0.0053602950004000526 -0.24613691810002827 0.042719405987423811 0 -0.2336901528946152 -0.13344344260781058 -0.065985496735251378 0.037432969609908912 -0.18165379914068194 0.032768966012222872 -0.034802566113679621 -0.1641114584341245 0.0027992570115054141 -0.12450608212563093 0.0066002381505095688 -0.10014603999360983 0 -0.031858606359879416 0 -0.022564565420991403 -0.18324476892030733 -0.30926772384187357 0 0.0011254300059963358 0 0 -0.16989699029111055 -0.013950051461680588 -0.064065387420658301 -0.05586600394625011 0 -0.24923844963686415 -0.048232861036750903 -0.075929513714324701 -0.13354269375633132 -0.0093441595520113701 -0.13662505979578415 -0.050451684109509731 0 0.025787120833092744 0.052188467285000442 -0.22699380120929036
leaf_weight=78.70737049728632 110.03301892057061 34.883075192570686 70.723005920648575 783.44082772731781 4.4533342272043219 2742.0495026931167 47.40717202052474 150.23846814036369 788.86970346048474 307.89838558807969 41.947813030332327 624.89724767208099 46.727567791938782 735.57439300790429 2824.1778341531754 412.1927811615169 29.789227154105902 18.415031958371401 3.1254337243735781 87.804488625377417 1763.4243289120495 12.485281266272066 184.41176577657461 434.14919809624553 20.566703774034977 93.212427914142609 438.25644415616989 88.358141824603081 564.66074019670486 41.513881403952837 44.809983864426613 215.69819395616651 72.678524859249592 10.587576590478418 77.317906077951193 6.8398904353380194 313.55261622741818 6.340656265616416 7.9397412538528434 6.671430278569459 110.99184279516339 83.312965601682663 249.48369712382555 4.8727186582982531 528.28824792802334 3.0889223404228678 342.72940308973193 95.129939667880535 648.73540452867746 53.466736890375614 463.19390176236629 5.8676402121782294 144.03502605110407 67.068132113665342 38.704959556460381 35.43060839921236 32.331929828971624 39.175523355603218 85.754568211734295 2.0584609098732463 1777.0123727470636 51453.300280094147 42.220886126160622
leaf_count=1783 2543 667 1393 18167 83 32281 902 3205 12540 6999 741 8015 893 13525 67678 9070 414 351 63 2032 21095 218 2398 10187 428 1199 9126 1825 13175 674 1044 4360 1158 226 1568 138 6298 126 132 132 2329 1140 3735 110 11921 48 7627 1817 14707 1017 9873 132 2260 1395 730 507 663 726 1776 45 41405 1233016 628
internal_value=0 -0.262553 -0.315284 0.0448402 -0.0652233 -0.35519 -0.360052 -0.0378376 -0.204016 -0.0302594 -0.0672978 -0.323351 -0.329221 -0.217711 0.050227 -0.0622423 -0.3351 -0.262538 -0.146 -0.0305833 -0.344084 -0.293118 -0.217353 0.0192811 -0.256665 -0.396687 -0.0876961 -0.177147 0.0102301 -0.0677478 -0.0678911 -0.0501519 -0.0726376 -0.212085 -0.187117 -0.265824 -0.0952905 -0.288594 -0.363931 -0.142532 -0.0631138 -0.304395 -0.295078 -0.227291 0.0202793 -0.401263 0.0243638 -0.156293 -0.0281025 -0.141183 -0.0751042 -0.235345 -0.243231 -0.123775 -0.198274 -0.0983564 -0.0962573 -0.0979743 -0.0198123 -0.306611 0.0194934 0.0516683 -0.204604
internal_weight=0 10118.9 7979.4 60534.2 2139.53 5855.24 5776.54 3696.22 2124.16 1828.35 1047.02 2938.18 2837.31 1922.87 56837.9 2453.03 2741.69 311.181 321.428 725.593 2527.49 756.126 214.201 781.332 950.582 2838.35 1392.1 972.287 1243.19 417.695 201.288 376.181 288.377 168.488 883.929 890.84 1282.07 276.298 1771.36 95.6199 152.94 708.21 269.957 157.901 1092.95 2745.14 776.879 101.97 1060.93 100.874 776.747 153.028 147.16 505.325 774.279 47.9159 109.65 59.7422 130.565 251.542 2560.45 54277.5 48.8923
internal_count=1596459 154880 110975 1441579 43905 72802 71019 81313 38173 38981 21084 37491 35572 33960 1360266 53012 33919 4924 5861 15223 31107 9880 2812 17897 15649 33528 29235 18311 28301 8224 4213 7550 5518 2791 16486 14495 26692 4257 21227 1653 3070 9155 4131 2565 25096 32329 17814 1955 23777 1919 16171 2455 2323 10521 14255 725 2231 1154 2820 3780 59572 1300694 760
is_linear=0
shrinkage=0.05


Tree=2
num_leaves=64
num_cat=0
split_feature=10 9 4 24 2 10 1 2 24 1 2 4 10 1 9 2 24 1 3 9 4 9 2 10 3 3 10 9 2 1 12 9 10 4 9 2 23 3 1 4 10 24 4 17 1 10 2 10 9 3 2 1 3 3 14 10 3 22 1 24 3 1 1
split_gain=38755.9 20850.7 11301.3 4736.31 4631.17 4597.33 4456.97 3796.28 2873.99 2373.14 2125.84 1776.45 1543.29 1524.07 1516.76 1340.27 876.683 849.799 843.52 758.106 723.491 707.087 640.966 538.004 783.447 695.25 453.541 447.458 398.272 381.06 372.356 523.492 366.165 493.077 382.647 352.996 327.943 301.08 300.149 263.159 358.237 262.707 301.447 310.237 260.248 260.241 259.06 376.633 266.696 485.024 257.8 245.006 242.911 409.658 242.388 239.43 236.921 228.58 224.841 217.762 216.296 294.609 212.591
threshold=637.50000000000011 10.500000000000002 0.93244248982950706 1.0000000180025095e-35 0.88714862820906459 387.50000000000006 0.97871344651136227 0.94717978100331057 1.0000000180025095e-35 0.97871344651136227 0.88714862820906459 0.93244248982950706 1062.5000000000002 0.94949024291666217 8.5000000000000018 0.88714862820906459 1.0000000180025095e-35 0.96496499698769511 0.92333436663740065 9.5000000000000018 0.97102824610414362 10.500000000000002 0.96490494291930473 1062.5000000000002 0.93091074186944511 0.95316819169998868 1387.5000000000002 12.500000000000002 0.95270377909255177 0.97871344651136227 9.5000000000000018 17.500000000000004 262.50000000000006 0.93244248982950706 11.500000000000002 0.96324663557258572 25.500000000000004 0.98969501236963497 0.97871344651136227 0.93244248982950706 1525.0000000000002 1.0000000180025095e-35 0.93244248982950706 24.500000000000004 0.94949024291666217 900.00000000000011 0.94717978100331057 3625.0000000000005 7.5000000000000009 0.93091074186944511 0.85970715492245298 0.94949024291666217 0.95316819169998868 0.94976303837613407 87.500000000000014 487.50000000000006 0.91706203854797608 1.0000000180025095e-35 0.94949024291666217 1.0000000180025095e-35 0.93953351507027383 0.93608197865142262 0.94517522857117009
decision_type=2 2 2 2 2 2 2 2 2 2 2 2 2 2 2 2 2 2 2 2 2 2 2 2 2 2 2 2 2 2 2 2 2 2 2 2 2 2 2 2 2 2 2 2 2 2 2 2 2 2 2 2 2 2 2 2 2 2 2 2 2 2 2
left_child=5 14 3 6 13 32 10 11 9 12 -3 16 22 45 46 -5 17 19 56 -7 35 -9 36 24 -20 -26 -17 -13 58 -15 -30 51 -1 34 -34 39 -6 -24 50 40 59 42 43 -23 -44 -4 47 -2 -49 -50 -29 -32 53 -36 -10 -21 -12 -45 62 -16 61 -52 -14
right_child=1 2 4 15 8 7 -8 21 54 -11 18 27 28 29 20 26 -18 -19 23 55 -22 41 37 -25 25 -27 -28 38 30 -31 31 -33 33 -35 52 -37 -38 -39 -40 -41 -42 -43 44 57 -46 -47 -48 48 49 -51 60 -53 -54 -55 -56 -57 -58 -59 -60 -61 -62 -63 -64
leaf_value=0.051312788588402172 0.032826679879241219 -0.18884006593873565 -0.095781775502668628 -0.13371957539992338 -0.0143842939173363 0.032117072394950971 0.0067472605571763863 0.049438607084740169 0.03284304058028726 0.04746816025164665 -0.12077888952203236 0.03498183749484992 -0.074814731813467081 -0.068741350901626336 -0.074340846120443602 0.0073865450132856994 0.016909403174466636 0.029926221770780526 -0.027261905983617947 -0.054198140095995342 0.034990917032615747 0.0062174932262316213 0.010616379019227197 -0.13040454746950011 -0.14187077947120291 -0.066078808088083307 -0.059270402547332394 -0.049763965336636469 -0.018804521232851354 0.0077625136628604666 -0.082148524025761241 -0.1279706344370137 0.04470302146596327 0.043969996972777044 0.00022527750484486293 0.0058800186697751042 -0.051697221646010885 -0.045104682567757341 0.047947354517634683 -0.025759800621364317 -0.15799418918972366 0.043012576691504496 0.0058800167820936156 -0.10347029124153694 0.033655045729743642 -0.15046980221390446 0.04405505932250145 0 0.019658386424200685 -0.2089075513141849 -0.060449797316883727 -0.023979313196374193 0.037061554628521197 -0.086185457729962778 -0.017423367149307672 -0.10046751401302954 -0.18455240579147317 0.00066074240105529344 -0.066766748271863602 0.021403871408416889 -0.019403225652093157 0.014754567550958768 -0.12894165840683444
leaf_weight=15271.947455193847 756.81284557282925 1785.920369181782 425.98695880174637 259.32810531556606 925.10536506026983 136.74277581647038 543.67712565883994 3751.2722282856703 1926.155385710299 748.74729369208217 341.3431565053761 814.81003117933869 471.39259771257639 1112.1803884580731 188.06582827493548 930.72489777579904 370.04456589370966 197.11975702643394 412.53137102350593 468.39993926137686 558.8499113433063 542.91734215244651 1338.6523767895997 1811.3665305115283 708.90415427088737 606.84811268374324 338.42226171866059 352.9343267083168 660.5966420955956 181.42314968630672 295.25488437712193 265.50698421150446 646.91559059172869 7754.5183312259614 691.25258952751756 401.15969997271895 1776.3233878538013 285.43057383969426 229.41445471718907 529.2302476502955 104.32305769994855 1072.2725282907486 1555.8607165627182 126.45988304167986 1912.6346778087318 951.32403624430299 5122.8255836851895 158.40240415558219 36.494092293083668 40.82403252273798 132.63991678506136 521.63545503094792 269.98066503182054 159.36617909371853 260.52819608524442 1110.2875511460006 670.38484179228544 77.982245426625013 1203.5589237511158 74.419668585062027 1359.2273526489735 1412.6691948138177 445.99714919552207
leaf_count=382495 18246 24322 7638 4522 19793 3305 12253 92731 45854 18562 5822 19606 9159 21164 3527 21093 8491 4673 8415 9584 13428 12330 30840 29892 11139 12011 7029 7358 14696 4129 5775 4797 15879 191856 15723 9109 35492 5871 5705 10703 1568 26286 36086 2345 46017 14866 125107 3475 854 599 2688 11163 6539 3217 5904 19560 9468 1781 23078 1737 29242 32418 7444
internal_value=0 -0.0418324 -0.0667297 -0.112408 -0.0388067 0.0330428 -0.130089 0.0117677 -0.0245349 -0.0371102 -0.14186 -0.017071 -0.044922 -0.097845 0.0274874 -0.0323157 -0.052623 -0.0662244 -0.122997 -0.0775273 -0.0119494 0.032797 -0.0242316 -0.110584 -0.0890367 -0.107865 -0.0105167 0.00181425 -0.067897 -0.0578429 -0.0493108 -0.0673576 0.0464288 0.0385237 0.0143761 -0.0324761 -0.0391118 0.000454385 -0.00594268 -0.0497995 -0.0822164 0.0208737 0.0150952 -0.013367 0.0213206 -0.134548 0.0394975 0.0155199 -0.0381031 -0.108265 -0.00994964 -0.0460454 -0.0031509 -0.0164869 0.0266883 -0.0873242 -0.164673 -0.0644062 -0.0827508 -0.0464886 -0.00487183 0.00779158 -0.102505
internal_weight=0 30176.7 22205.3 8409.45 13795.8 40417.7 6880.98 15623.7 11124.9 8938.2 6337.3 6584.29 8189.45 2670.91 7971.41 1528.48 2282.59 1912.55 4551.38 1715.43 1856.05 9039.4 4325.51 3539.65 1728.28 1315.75 1269.15 4301.7 3863.94 1293.6 1742.99 1082.4 24794 9522.03 1767.52 1297.2 2701.43 1624.08 3486.89 896.039 366.809 5288.13 4215.85 747.359 3468.5 1377.31 6115.36 992.533 235.721 77.3181 3257.47 816.89 1120.6 850.619 2186.68 1578.69 1011.73 204.442 2120.95 262.485 2904.54 1545.31 917.39
internal_count=1596459 620544 432191 145966 286225 975915 113322 360206 238428 186670 101069 142630 168108 47797 188353 32644 45613 37122 76747 32449 40072 217576 91996 61457 31565 23150 28122 97017 76112 25293 36431 21735 615709 233214 41358 26644 55285 36711 77411 17535 6832 124845 98559 16456 82103 22504 148281 23174 4928 1453 71706 16938 25479 18940 51758 29144 15290 4126 39681 5264 64348 35106 16603
is_linear=0
shrinkage=0.05


Tree=3
num_leaves=64
num_cat=0
split_feature=11 9 11 11 9 11 2 5 11 22 9 22 23 11 2 11 0 2 11 9 2 9 2 22 9 26 23 9 0 2 11 11 26 23 9 26 2 24 2 2 2 2 11 1 11 1 1 1 6 2 2 13 24 0 24 0 21 9 2 0 2 13 6
split_gain=231234 32286.1 10080.8 5919.69 1786.48 1311.5 1275.11 1277.9 814.747 1822.7 719.845 583.268 570.489 450.667 437.05 407.49 364.154 316.237 272.962 249.789 241.831 276.604 241.265 223.475 194.429 180.648 152.215 139.891 130.793 130.109 123.801 123.124 121.701 109.184 105.912 102.309 97.8571 85.0659 74.5764 70.2113 64.4135 63.6502 58.7967 58.0737 56.8672 54.4848 53.4043 53.0978 50.5089 48.3382 48.1406 46.714 43.4099 41.8006 40.9996 40.8296 40.0279 39.7675 39.4924 38.5464 35.9998 35.9991 34.9842
threshold=0.00062361111111111124 8.5000000000000018 0.00086300795978215344 0.00044971946688373735 9.5000000000000018 0.00073661240858693088 0.93913894551071497 0.94737939218035383 1.0000000180025095e-35 5.5000000000000009 12.500000000000002 1.5000000000000002 15.500000000000002 0.0010306566748615269 0.85970715492245298 0.00053342816500711254 0.95386510915859812 0.97367348549168131 0.00031291296190553882 7.5000000000000009 0.93411013379209973 6.5000000000000009 0.88406088040005448 2.5000000000000004 17.500000000000004 1.0000000180025095e-35 44.500000000000007 7.5000000000000009 0.94526022588281022 0.96927977929545761 0.0007870967741935485 0.00031291296190553882 1.0000000180025095e-35 44.500000000000007 17.500000000000004 1.0000000180025095e-35 0.98499009184286612 1.0000000180025095e-35 0.98970201434309002 0.99155486690375527 0.99155486690375527 0.96665791396772605 0.00094900619094167497 0.94949024291666217 0.00066796729840208114 0.94949024291666217 0.95754375331593389 0.98961820679910362 0.94013321035826614 0.99713727658283491 0.91928879981653655 1324.0000000000002 1.0000000180025095e-35 0.99307561582971982 1.0000000180025095e-35 0.99307561582971982 17.500000000000004 7.5000000000000009 0.98970201434309002 0.94526022588281022 0.85970715492245298 420.50000000000006 0.92611184933736068
decision_type=2 2 2 2 2 2 2 2 2 2 2 2 2 2 2 2 2 2 2 2 2 2 2 2 2 2 2 2 2 2 2 2 2 2 2 2 2 2 2 2 2 2 2 2 2 2 2 2 2 2 2 2 2 2 2 2 2 2 2 2 2 2 2
left_child=1 6 4 8 33 23 20 19 -3 10 16 15 -11 42 -13 35 32 37 22 -8 54 -22 -14 24 28 -12 51 -28 -6 41 38 -27 -10 -2 55 -5 50 -16 45 47 -34 -29 -4 56 -30 -7 48 -37 -21 53 -18 -9 60 -33 -1 62 61 -35 -59 -32 -25 -19 -17
right_child=2 3 13 11 5 30 7 26 9 12 25 14 18 -15 17 34 36 43 -20 46 21 -23 -24 52 -26 31 27 29 44 -31 59 49 40 57 -36 39 -38 -39 -40 -41 -42 -43 -44 -45 -46 -47 -48 -49 -50 -51 -52 -53 -54 -55 -56 -57 -58 58 -60 -61 -62 -63 -64
leaf_value=-0.054195344759022296 0.041666988403592696 -0.34383246219615327 0.025250423050072707 0 -0.089349673673149832 -0.051058240852845854 0.013887510330384696 0.044651501113034071 0 -0.25384108308949788 -0.095373140198369538 0.013229195914215923 -0.12945644790188102 0.051879622695608543 -0.15853265829628041 -0.040998606430686174 -0.013075343056007216 -0.021579491513182083 0.0036036386676893775 0 -0.058483059045432439 -0.2357650933993207 0.0047987073629662154 0.018385520696111744 -0.10860909799254484 -0.25788036123067271 0.039675293758711143 -0.00067562744044612297 -0.069471526562695493 -0.0059249136752099058 -0.014293951324930363 -0.2323519450770308 -0.21633977948478544 0.031626282405371242 -0.17368314565389206 -0.1961785909739952 -0.051169621910823596 -0.062888667675201931 0.0073051766758809771 -0.012104476507207203 0 -0.19258041842707052 0.03954027479515225 -0.031290614158931911 -0.036284194395810904 -0.020397618567319677 -0.047558558827536103 0 -0.24035335067100883 0 -0.15458044679463145 -0.012781938125295565 0.017603316978617414 -0.030462350203555706 0.015161498177624522 0 0 -0.036849851637455355 0.014390223205428663 0.0037992786861847355 -0.041330839791900664 -0.12205391034030917 -0.12970337446356264
leaf_weight=36.659032244235277 821.49253046512604 236.23979741334915 1678.4443077705801 8.6995931603014451 417.02912809699774 293.83426449075341 12.591719023883341 1303.223582226783 7.421380214393138 67.813183039426804 40.633217547088861 59.433686710894108 241.99785571172833 49182.660298235714 362.87685927003622 31.516200423240662 12.347923792898653 23.340664777904749 55.668577831238508 2.4568123295903197 56.383446548134089 49.995882246643305 33.68212042376399 18.078778248280287 436.61970916390419 4553.4150418005884 70.762301634997129 9.1620797105133533 280.59113053232431 65.590799055993557 451.05188588425517 2283.1303112953901 747.95248302817345 53.979907311499119 334.02831306681037 1070.9935554899275 60.330829206854105 54.113350056111813 112.69747508689761 9.5365918017923814 5.0938015654683104 9.2308954708278179 1707.300160728395 108.21091255545616 427.11085086688399 402.89515398070216 15.126940611749886 3.5407230816781512 42.692118488252163 1.5317005701363076 149.05242182686925 25.446506336331367 44.735316559672356 8.6748034767806512 25.03292839974165 3.8912687450647345 7.9476202912628642 79.840084455907345 48.724578388035297 773.96443410590291 138.94758416339755 63.2093874104321 702.54148099571466
leaf_count=610 20290 1975 38797 141 7706 6088 264 31292 87 644 415 1066 2008 1259027 5105 482 130 498 893 50 935 558 422 302 7755 36418 1675 173 5426 1440 9807 22250 7007 1290 4754 13298 921 1030 2672 157 90 144 41667 2059 8431 8400 275 51 732 24 1449 500 892 108 472 67 156 1799 1195 17255 2780 1174 10881
internal_value=0 -0.188622 0.0443151 -0.219227 -0.0249571 -0.0406526 0.0127616 0.0272352 -0.240312 -0.236912 -0.242323 -0.155461 -0.126304 0.0506507 -0.110588 -0.168851 -0.194984 -0.122881 -0.0927981 -0.16371 -0.113858 -0.157049 -0.112584 -0.0721253 -0.0785693 -0.248745 0.0378155 -0.00734489 -0.0658332 -0.0496289 -0.0130357 -0.249479 -0.213164 0.0339768 -0.142531 -0.192917 -0.125047 -0.14847 -0.028116 -0.194286 -0.215127 -0.139698 0.0326251 -0.0645621 -0.0505753 -0.0342215 -0.201065 -0.195545 -0.230014 -0.231642 -0.146608 0.0432775 -0.019722 -0.231832 -0.0243758 -0.125962 -0.0936291 0 -0.0159892 -0.00272203 -0.0322697 -0.102589 -0.126833
internal_weight=0 13073.2 57370 11348.9 4801.59 3797.56 1724.36 1556.28 8504.99 8268.75 7869.58 2843.88 399.162 52568.4 679.132 2164.75 982.199 619.699 331.349 72.8676 168.071 106.379 275.68 1763.11 1561.35 6887.39 1483.42 154.746 1124.73 83.9838 2034.44 6846.75 760.468 1004.04 1071.98 1092.77 221.731 416.99 809.427 1084.07 753.046 18.393 3385.74 202.709 707.702 696.729 60.2759 1074.53 45.1489 2293.34 161.4 1328.67 201.762 2291.81 61.692 737.949 94.4977 182.545 128.565 1225.02 157.026 86.5501 734.058
internal_count=1596459 154880 1441579 115760 102088 77514 39120 36545 74841 72866 68899 40919 3967 1339491 11088 29831 9684 10022 3323 1321 2575 1493 2430 33292 29318 59215 35224 3432 21563 1757 44222 58800 7184 24574 16184 13647 2500 6135 17160 13506 7097 317 80464 3887 13857 14488 1057 13349 782 22382 1579 31792 3974 22358 1082 11430 1828 4284 2994 27062 3082 1672 11363
is_linear=0
shrinkage=0.05


Tree=4
num_leaves=64
num_cat=0
split_feature=11 9 11 11 10 2 10 4 9 11 9 22 11 11 2 24 11 10 5 6 10 22 9 10 10 22 2 10 9 2 2 2 10 2 10 1 15 9 2 18 26 24 4 22 26 4 10 10 10 11 10 2 11 10 10 10 24 10 9 6 10 26 17
split_gain=189247 23300.8 6110.4 5879.48 1125.12 1124.97 1079.3 937.483 928.735 667.473 555.832 493.459 534.982 462.665 434.259 714.653 434.232 341.723 333.591 315.348 277.57 257.642 244.493 217.557 167.718 147.6 139.929 137.351 130.092 128.424 159.745 128.027 125.088 123.453 121.586 109.556 107.368 99.3779 95.5296 94.2227 92.3343 90.521 82.7517 78.2409 76.9579 73.6679 71.9377 70.502 68.4214 66.7631 63.1737 61.1572 58.359 53.4031 51.3058 50.9865 48.5159 47.3211 212.199 106.776 47.3558 46.1392 45.7757
threshold=0.00066796729840208114 8.5000000000000018 0.00086300795978215344 0.00044971946688373735 312.50000000000006 0.97367348549168131 312.50000000000006 0.97102824610414362 9.5000000000000018 0.00053342816500711254 7.5000000000000009 2.5000000000000004 1.0000000180025095e-35 0.0010306566748615269 0.85970715492245298 1.0000000180025095e-35 0.0007870967741935485 775.00000000000011 0.94737939218035383 0.94013321035826614 387.50000000000006 2.5000000000000004 11.500000000000002 612.50000000000011 237.50000000000003 3.5000000000000004 0.85970715492245298 262.50000000000006 11.500000000000002 0.91928879981653655 0.96927977929545761 0.85970715492245298 737.50000000000011 0.94951722947665251 637.50000000000011 0.94949024291666217 125.00000000000001 7.5000000000000009 0.96324663557258572 3.5000000000000004 1.5000000000000002 1.0000000180025095e-35 0.93244248982950706 3.5000000000000004 1.0000000180025095e-35 0.93244248982950706 3625.0000000000005 387.50000000000006 487.50000000000006 0.00044971946688373735 487.50000000000006 0.99155486690375527 0.00094900619094167497 3625.0000000000005 2062.5000000000005 262.50000000000006 1.0000000180025095e-35 737.50000000000011 7.5000000000000009 0.94013321035826614 1112.5000000000002 1.0000000180025095e-35 65.500000000000014
decision_type=2 2 2 2 2 2 2 2 2 2 2 2 2 2 2 2 2 2 2 2 2 2 2 2 2 2 2 2 2 2 2 2 2 2 2 2 2 2 2 2 2 2 2 2 2 2 2 2 2 2 2 2 2 2 2 2 2 2 2 2 2 2 2
left_child=1 5 8 6 27 7 24 10 45 25 36 17 -13 52 53 47 20 22 37 -12 55 28 33 -21 -3 32 -27 -5 -11 -25 40 -23 -6 -8 -30 43 46 -7 -26 -24 -31 -33 -37 -22 -34 -2 -1 -16 -39 -32 -18 -41 -4 -14 -17 -10 -28 -20 -59 -60 -61 -36 -46
right_child=2 3 13 4 9 18 11 -9 16 21 19 12 14 -15 15 54 50 -19 57 23 35 31 39 29 38 26 56 -29 34 30 49 41 44 -35 61 42 -38 48 -40 51 -42 -43 -44 -45 62 -47 -48 -49 -50 -51 -52 -53 -54 -55 -56 -57 -58 58 59 60 -62 -63 -64
leaf_value=0.011475582357548152 -0.0036258592779928713 0 0.024564301413246625 0.022099153369148094 -0.13012224934171823 0.0081960502051128363 -0.1517524057334993 0.042244114715276115 0.0308195607338283 -0.068657465056492034 0 -0.24532587929337774 -0.13848842444834863 0.051759932818493629 -0.029964864445578152 -0.0095532032724694529 0.015501471049552767 -0.20851624314141226 0.049248816278328438 0.0052404105105382896 -0.067432444354380838 0.027355577652399751 -0.082675951951803481 0.0031929287500341921 -0.11773396225680129 0.018860151090117995 -0.12522902966099098 -0.049665582983782257 -0.093470258913564808 0 -0.12172013545310252 -0.083882708132323944 0 -0.061775990364987425 0 -0.053263115192543099 0.029316581762088463 0 -0.010795539799500421 -0.18895582558908433 -0.23637796520943657 0 -0.021438464875990538 0.0013326356872197908 -0.17435730762647586 0.040950858768223408 -0.083232611957142877 -0.19454861384446795 -0.17627271803201697 0 -0.0096279518467177957 0 0.038988055618876583 -0.079788706709545423 -0.10949928071555104 -0.011128889586326473 0 0.048620528240584902 0.012638066103956231 -0.0061287650887551478 -0.10302099430625777 -0.13055037630542216 0
leaf_weight=20.755420070141554 93.954791475087404 51.663804326206446 1640.3220867402852 117.24421443045139 568.80790744721889 9.7313271351158637 130.87729172036052 176.77873807772994 105.06582697853446 217.84755278378725 32.515848740935326 181.06989286094904 95.490299332886934 46889.472075767815 14.282354656606911 80.843269854784012 331.57726529985666 5954.2814040593803 871.87073392793536 12.58524416387081 691.68505263701081 33.962485648691654 51.856740679591894 5.5516648888587943 129.53363261371851 24.599024917930365 45.774535458534956 125.68143919855356 554.39631633460522 5.0007284618914118 16.967181503772736 146.23062620684505 6.434059925377368 99.576070860028267 10.461076673120258 403.33612203970551 63.002952612936497 4.3746091201901462 33.363360121846199 2323.7932376563549 108.94904131814837 37.151776775717735 530.82965349033475 36.002111960202456 908.40105245634913 663.04058741405606 48.691855624318123 541.31513258814812 17.289172191172838 20.704624652862549 896.63354324176908 5.4177929982542983 1646.5970380529761 309.15990859642625 8.1107766553759557 177.28690991178155 9.6764969415962678 334.0662618689239 84.087447244673967 28.59121185541153 31.501709625124931 1195.6791182272136 4.4454900771379462
leaf_count=386 2172 997 38797 2579 6594 213 1052 3931 2492 3513 612 1168 818 1259027 214 991 7875 40054 22593 239 12513 629 456 87 1662 476 564 2411 8637 89 246 2375 97 1221 164 6870 1210 90 600 18711 1250 743 10806 664 9271 17007 778 4102 256 386 19187 81 41667 2637 77 3897 185 8447 2113 564 591 16261 64
internal_value=0 -0.150341 0.045772 -0.172564 -0.12065 0.0141261 -0.193176 -0.0483924 -0.0141906 -0.127376 -0.0968226 -0.195648 -0.160679 0.0504746 -0.143656 -0.170477 -0.0261082 -0.200448 0.0376346 -0.147145 -0.0407599 -0.108049 -0.181231 -0.173072 -0.0755294 -0.153423 -0.0679572 -0.0145367 -0.11393 -0.188305 -0.196627 -0.0507619 -0.15737 -0.1181 -0.118971 -0.0485181 -0.0132814 -0.101891 -0.0991687 -0.186718 -0.227504 -0.0671885 -0.0358625 -0.0637195 -0.172379 0.0351171 -0.0538991 -0.191364 -0.146209 -0.0698561 -0.00257151 -0.188564 0.0319621 -0.0972495 -0.0313374 0.00414562 -0.107288 0.0417882 0.0269448 -0.0215526 -0.0679393 -0.129622 -0.17358
internal_weight=0 15910.4 54105.8 14017.4 4006.79 1893.02 10010.6 511.503 3929.41 3763.87 334.725 9796.07 1230.27 50176.4 1049.2 644.552 3172.42 8565.8 1381.51 202.274 1944.21 2195.73 2611.52 169.758 214.561 1568.14 80.0501 242.926 1978.38 157.173 151.622 217.345 1488.09 230.453 1760.54 1661.85 132.45 31.3951 162.897 2381.07 113.95 183.382 934.166 727.687 919.281 756.995 69.4473 555.597 21.6638 37.6718 1228.21 2329.21 3286.92 404.65 88.954 282.353 55.451 1350.12 478.247 144.18 60.0929 1206.14 912.847
internal_count=1596459 173485 1422974 129404 54563 44081 74841 9214 83483 49573 5283 71582 10007 1339491 8839 5384 64304 61575 34867 2909 37242 32322 21521 2297 3259 17251 1225 4990 28575 2058 1971 3747 16026 2273 25062 30853 2374 559 2262 19248 1339 3118 17676 13177 9432 19179 1164 4316 346 632 27062 18792 80464 3455 1068 6389 749 34308 11715 3268 1155 16425 9335
is_linear=0
shrinkage=0.05


Tree=5
num_leaves=64
num_cat=0
split_feature=11 9 11 11 3 9 9 11 11 4 11 11 5 21 11 21 3 4 6 2 1 9 2 24 15 0 4 9 11 21 9 9 9 1 24 2 11 23 0 11 13 21 24 12 2 15 21 3 2 2 17 4 1 1 4 0 2 18 12 1 0 2 2
split_gain=159962 17054.6 5957.46 4248.64 1029.44 838.564 775.506 538.817 474.825 447.073 400.179 361.864 334.387 306.286 227.023 269.541 273.291 186.829 182.843 180.954 178.397 142.419 142.3 124.879 176.978 116.867 112.441 95.4592 94.5818 88.4424 87.0123 86.8665 81.792 80.086 72.9715 72.6216 69.1575 66.9406 60.439 57.8326 55.4763 50.3584 49.3507 47.3831 58.8335 47.1404 45.1346 45.0885 42.1184 41.6818 41.5003 38.7336 36.8716 51.9384 36.4585 36.3106 36.1171 35.7956 32.0595 32.0274 31.5307 30.6853 32.7892
threshold=0.00066796729840208114 8.5000000000000018 0.00086300795978215344 0.00044971946688373735 0.9797581813409072 8.5000000000000018 7.5000000000000009 0.00053342816500711254 0.0010306566748615269 0.97102824610414362 0.00073661240858693088 0.00031291296190553882 0.94737939218035383 28.000000000000004 1.0000000180025095e-35 22.500000000000004 0.93953351507027383 0.93244248982950706 0.94013321035826614 0.93913894551071497 0.94949024291666217 12.500000000000002 0.91928879981653655 1.0000000180025095e-35 65.500000000000014 0.96973409257727827 0.93244248982950706 13.500000000000002 0.00053342816500711254 22.500000000000004 7.5000000000000009 11.500000000000002 12.500000000000002 0.94949024291666217 1.0000000180025095e-35 0.91928879981653655 0.0007870967741935485 104.50000000000001 0.94526022588281022 0.00094900619094167497 724.50000000000011 24.500000000000004 1.0000000180025095e-35 9.5000000000000018 0.97367348549168131 65.500000000000014 26.000000000000004 0.99332505877505051 0.99155486690375527 0.99155486690375527 52.000000000000007 0.93244248982950706 0.95754375331593389 0.97871344651136227 0.93244248982950706 0.979483751468471 0.85970715492245298 3.5000000000000004 15.500000000000002 0.98961820679910362 0.979483751468471 0.85970715492245298 0.98970201434309002
decision_type=2 2 2 2 2 2 2 2 2 2 2 2 2 2 2 2 2 2 2 2 2 2 2 2 2 2 2 2 2 2 2 2 2 2 2 2 2 2 2 2 2 2 2 2 2 2 2 2 2 2 2 2 2 2 2 2 2 2 2 2 2 2 2
left_child=1 4 5 11 6 54 19 32 39 18 31 14 30 23 -3 21 22 46 -8 40 41 25 -17 47 -25 48 36 -22 35 50 -6 -7 34 -28 61 -20 -12 45 -33 -4 58 55 52 -37 57 -34 -9 60 -16 59 -26 -40 -29 -54 -2 -19 -15 -45 -1 -47 -13 -5 -63
right_child=2 3 8 7 12 10 9 17 -10 -11 26 13 -14 56 15 16 -18 20 28 -21 27 -23 -24 24 29 -27 33 42 -30 -31 -32 38 37 -35 -36 43 -38 -39 51 -41 -42 -43 -44 44 -46 49 -48 -49 -50 -51 -52 -53 53 -55 -56 -57 -58 -59 -60 -61 -62 62 -64
leaf_value=0 0.00037958905911622065 -0.22029623974332996 0.023882978469191758 0 0.0067179909232163272 -0.0094625593151623846 -0.0012883401597696177 -0.10698297624223954 0.051645291544940963 0.030751958290936843 -0.042596935986642069 -0.15494187477630458 0.044194567939337209 0.017471244044635913 -0.14950630592730671 -0.095999456692245633 -0.17720316067237901 -0.09900880468277197 0 0.043516306704059128 -0.023071549033990044 -0.17316780621360778 0.0012899000020639602 0 -0.12964368200852522 -0.067267295185291898 -0.014630689297264224 -0.052691002929921953 -0.053886320143242586 0 -0.13926633544671954 -0.06768495123721166 -0.073271895836202972 0.0094929196687885964 -0.0084473140709407125 -0.012980278230215954 -0.011485337721443967 -0.037614579897211398 -0.056512849710232564 0.038428623810539846 0.013139750387733804 0 -0.013226630731397527 0 -0.04310395480125595 -0.13685762866903339 -0.0021453951332948665 0 0 0 0 -0.026628019048185653 -0.093272479488273774 0 0.04262692884386407 -0.022479233838414592 -0.053979814235881246 -0.18503335177115524 -0.074622605775014381 0 -0.10912789934965438 -0.11117106180439243 -0.036725849862816733
leaf_weight=13.857547029852865 69.347659666091204 337.44892209768295 1603.9834137707949 4.1768415868282309 9.0977485328912753 157.89623951539397 32.873105335980654 1038.2218730859458 44699.179734345526 52.857070550322533 331.84513067826629 3108.7198644541204 1220.116315215826 27.464824393391609 703.45732063800097 227.54783300310373 136.72923690080643 665.78653061762452 4.3276732787489882 206.72728946059942 198.56523686274886 6068.9566543735564 38.36220795661211 34.158590819686651 261.90924806147814 85.577353544533253 622.12346384674311 283.28282614424825 52.823111217468977 18.021854594349861 22.452108718454838 429.75621154531837 88.202836859971285 739.06926764547825 33.711668729782104 10.615238949656485 459.89570498466492 35.800699960440397 232.50395534932613 1588.6623060405254 28.268625974655151 15.907285653054712 55.842906579375267 3.7574838176369658 21.362653113901615 1429.3514449000359 15.70845605432987 4.7259824946522704 3.5498329848051062 8.4200413785874826 5.0440276339650145 364.19936870411038 250.70411321893334 15.304442327469586 572.08009280264378 31.601188354194164 20.194445617496967 131.10959996283054 52.526050485670567 5.2303114570677272 186.30424707382917 191.68632327765226 41.709139309823513
leaf_count=240 1630 1975 38797 64 200 3093 620 13148 1259027 1131 6014 22559 32545 385 4770 1595 922 9544 63 4860 3382 36562 401 323 2398 759 13580 4030 972 245 316 6987 930 16732 487 154 9451 490 3638 41667 526 266 980 65 347 13836 252 73 66 119 63 7022 3558 246 15336 461 205 1248 794 74 1540 2020 676
internal_value=0 -0.129211 0.0454163 -0.146197 0.0136329 -0.013294 -0.0389499 -0.103975 0.0503008 -0.0933652 -0.0234125 -0.162589 0.0396089 -0.147282 -0.169736 -0.167054 -0.118125 -0.088076 -0.120037 0.017372 -0.0750627 -0.169713 -0.0815196 -0.148947 -0.10749 -0.141115 -0.0103313 -0.0567525 -0.135597 -0.119966 -0.0996679 -0.0466966 -0.12548 -0.00137657 -0.0889269 -0.155066 -0.0252057 -0.131045 -0.0520364 0.0312964 -0.036042 -0.0942781 -0.0668433 -0.160189 -0.167305 -0.132809 -0.10569 -0.152544 -0.148643 -0.135747 -0.126991 -0.0394242 -0.0715132 -0.0880166 0.0385191 -0.0962612 -0.0125797 -0.180919 -0.0592368 -0.136407 -0.152765 -0.0985347 -0.10095
internal_weight=0 17540.2 51870.5 15677.4 1862.77 3978.72 611.105 4409.21 47891.8 309.726 3337.29 11268.2 1251.67 3666.54 7601.63 7264.18 402.639 2570.92 256.869 301.38 1516.99 6861.54 265.91 3618.88 319.134 792.585 2152.93 803.7 223.996 284.975 31.5499 1184.36 1838.29 1361.19 271.284 171.173 791.741 1567.01 1026.46 3192.65 94.6522 713.295 605.134 166.845 156.23 1531.2 1053.93 3299.75 707.007 1443 266.953 596.703 549.291 266.009 641.428 697.388 47.6593 134.867 66.3836 1434.58 3295.02 237.572 233.395
internal_count=1596459 173485 1422974 129404 44081 83483 11020 54563 1339491 4600 66517 74841 33061 27791 47050 45075 2918 35867 3469 6420 22467 42157 1996 27201 3029 5595 45777 12196 2849 2706 516 20740 18696 30312 3247 1877 15465 15449 17647 80464 1560 10271 8814 1814 1660 14959 13400 24172 4836 14029 2461 10660 7834 3804 16966 10005 590 1313 1034 13910 24099 2760 2696
is_linear=0
shrinkage=0.05


Tree=6
num_leaves=64
num_cat=0
split_feature=11 9 11 11 10 4 6 11 10 9 9 11 4 21 10 11 10 1 10 6 17 22 2 16 2 22 11 10 23 22 11 22 4 10 9 10 11 2 0 9 9 9 10 2 2 2 2 11 5 11 10 2 24 0 10 23 10 9 24 2 24 5 10
split_gain=138019 13624.4 5900.82 2835.26 1109.42 929.675 1071.22 598.087 566.447 510.739 416.935 391.351 375.171 318.446 286.849 260.51 177.847 162.595 151.485 148.054 143.88 138.456 279.208 136.635 125.443 112.583 230.959 173.279 123.033 107.664 104.595 100.292 98.147 94.3358 88.4459 88.1215 84.5203 84.4351 78.1695 76.5594 71.8797 71.333 67.7609 67.1223 63.7846 58.5387 58.2419 53.0189 49.8803 49.3637 48.4383 45.2158 44.1657 43.1189 42.9299 81.07 41.6999 41.6574 46.6322 38.1313 37.3567 33.8609 33.4361
threshold=0.00073661240858693088 8.5000000000000018 0.00053342816500711254 0.00094900619094167497 387.50000000000006 0.97102824610414362 0.94013321035826614 0.00031291296190553882 312.50000000000006 7.5000000000000009 9.5000000000000018 0.00062361111111111124 0.93244248982950706 28.000000000000004 562.50000000000011 0.00086300795978215344 262.50000000000006 0.94949024291666217 437.50000000000006 0.92611184933736068 32.500000000000007 4.5000000000000009 0.85970715492245298 5.8768707482993223 0.93913894551071497 4.5000000000000009 1.0000000180025095e-35 737.50000000000011 62.500000000000007 2.5000000000000004 0.0010847390157734988 2.5000000000000004 0.93244248982950706 900.00000000000011 11.500000000000002 812.50000000000011 0.0007870967741935485 0.91928879981653655 0.979483751468471 11.500000000000002 14.500000000000002 21.500000000000004 237.50000000000003 0.85970715492245298 0.93411013379209973 0.99155486690375527 0.94951722947665251 1.0000000180025095e-35 0.94737939218035383 0.00053342816500711254 262.50000000000006 0.94951722947665251 1.0000000180025095e-35 0.93074273492003645 737.50000000000011 36.500000000000007 262.50000000000006 17.500000000000004 1.0000000180025095e-35 0.85970715492245298 1.0000000180025095e-35 0.93619732787037113 162.50000000000003
decision_type=2 2 2 2 2 2 2 2 2 2 2 2 2 2 2 2 2 2 2 2 2 2 2 2 2 2 2 2 2 2 2 2 2 2 2 2 2 2 2 2 2 2 2 2 2 2 2 2 2 2 2 2 2 2 2 2 2 2 2 2 2 2 2
left_child=1 5 4 10 12 6 -1 25 32 24 -2 29 40 19 -11 18 47 -18 56 20 -9 33 -23 37 -8 27 -27 39 -28 57 -5 34 -4 38 -13 -36 -20 -16 45 46 42 48 -3 -31 -15 -21 -6 -14 62 -25 -34 -44 59 -30 -7 -56 -12 58 -10 -33 -45 -37 -42
right_child=3 2 8 30 7 54 9 13 11 14 15 31 16 44 23 -17 17 -19 36 21 -22 22 -24 49 -26 26 28 -29 53 43 -32 52 50 -35 35 61 -38 -39 -40 -41 41 -43 51 60 -46 -47 -48 -49 -50 -51 -52 -53 -54 -55 55 -57 -58 -59 -60 -61 -62 -63 -64
leaf_value=0.037980050055017076 0.040409846272915051 0.0040592967403993143 -0.045807423890881577 0.040114284470176433 -0.10651620340516453 0.04915912153518006 -0.04261862857922441 -0.096465580741153259 -0.089172894320488916 0.018071633299162591 0.037277097004748176 -0.025060566995132774 -0.07573698168717187 0.014096429076557721 0.0024703129725815085 0.017960449132707543 -0.091383138495249761 -0.017192733672914611 -0.031315414733399848 -0.12359952698894563 0.02350059010859348 0.016382160982532198 -0.13124254400489541 -0.082139976218361707 0.038481594936793859 -0.17279433454958382 -0.13491250406104857 -0.15657538138887955 -0.098105696399235234 0.021675358839753901 0.051705358943850768 0.019104543039744917 0.040675332488963212 -0.13961053886398553 -0.049525665128300034 -0.031494151862368376 -0.0077731978742556739 -0.15456944997444907 -0.0676514402091421 -0.13683079767373799 0 0 -0.10427256890854711 -0.067987238789484844 -0.070653353145837372 0 -0.026598056124585476 0.032192470146867325 -0.060948637718256406 0 -0.004691299032129401 -0.017429530981745142 0.017063021182947353 -0.049107105286314158 0.035698266364573079 -0.037730367498547281 0.0035997433837758339 -0.11128213969903929 -0.042683047452058441 -0.041989686224889577 0 -0.080386519078117891 -0.18443771771237091
leaf_weight=385.56699512153864 785.65039840713143 14.879829682409762 68.079900793731213 2458.3771431781352 81.107603244483471 956.22551301121712 84.121502496302128 357.09019900858402 970.83245093747973 34.015263453125954 128.68179864063859 201.54880271479487 2.2341219484806052 49.156417984515429 5.3591467738151541 1273.1479949317873 157.41556715592742 160.18525713309646 679.13386635482311 2159.1485019177198 19.54701179265976 54.19921325519681 54.921407625079155 58.468850687146187 86.341487858444452 181.29198056459427 171.05352485924959 5643.5379581563175 129.675094217062 22.864674169570208 41682.621200982481 18.600047770887613 111.3899298235774 2773.623462587595 750.27070328220725 73.949428323656321 959.67247924953699 190.29856715723872 128.91701893880963 1576.100391741842 1.5762422308325756 5.845680631697177 120.29314617067575 111.1188327819109 23.62939502671361 13.573513537645338 55.063727982342243 87.063212804496288 32.779488176107407 30.827017311006784 93.752140715718269 30.356950137764215 46.511251088231802 181.95537561178207 156.96789724752307 36.688715077936649 341.98318950459361 504.23131610453129 109.65363915637136 139.69152568280697 23.792589507997036 746.04298502579331 87.00856114178896
leaf_count=9918 21347 227 1237 67678 495 26978 1298 2576 11185 720 3170 3555 26 724 89 30827 1945 2129 12769 16372 228 758 518 695 2170 917 1017 29729 850 430 1233016 302 2552 18438 11787 1066 20374 2125 1146 9236 23 62 1035 1482 234 170 521 1605 271 658 1824 292 890 1349 3822 752 7909 5236 1557 2379 439 10686 644
internal_value=0 -0.107797 -0.121377 0.047352 -0.136364 0.0151079 -0.0233954 -0.139559 -0.0672307 -0.0720391 0.00784218 -0.0723239 -0.0725676 -0.125908 -0.108444 0.000107483 -0.0390426 -0.0563946 -0.0105834 -0.127276 -0.0891461 -0.129821 -0.0606002 -0.124494 -0.000298982 -0.148949 -0.120716 -0.151296 -0.0975385 -0.0900459 0.0510747 -0.0562006 0.00132124 -0.131138 -0.0601208 -0.0642757 -0.0178117 -0.149141 -0.12026 -0.132942 -0.115512 -0.149636 -0.0808319 -0.0432673 -0.0156082 -0.122942 -0.0799405 0.0196191 -0.157305 -0.0583909 0.0195259 -0.0905035 -0.0199013 -0.0726899 0.0445715 0.0193899 0.0139114 -0.0942459 -0.0851188 -0.0326167 -0.0567351 -0.076711 -0.180625
internal_weight=0 20370.4 18345.6 48309.3 14353.2 2024.88 874.999 13653.6 3992.33 489.432 4168.27 3719.11 699.638 5633.81 318.969 3382.62 406.898 317.601 2109.47 5561.02 376.637 5184.38 109.121 284.954 170.463 8019.79 663.976 7355.81 482.684 1742.49 44141 1976.61 273.222 5075.26 1771.81 1570.26 1638.81 195.658 2301.64 1712.27 292.74 127.21 165.53 157.776 72.7858 2172.72 136.171 89.2973 121.364 89.2959 205.142 150.65 204.803 311.63 1149.88 193.657 470.665 1584.72 1080.49 158.292 134.911 819.992 88.5848
internal_count=1596459 199369 150144 1397090 93537 49225 17673 85278 56607 7755 96396 50994 8259 41164 4287 75049 5705 4074 44222 40206 2804 37402 1276 3567 3468 44114 4133 39981 3216 20329 1300694 30665 5613 36126 27094 23539 33143 2214 17688 10252 2554 1000 1554 2351 958 16542 1016 1631 938 1353 4376 1327 3571 2199 31552 4574 11079 17978 12742 2681 1921 11752 667
is_linear=0
shrinkage=0.05


Tree=7
num_leaves=64
num_cat=0
split_feature=10 9 4 0 10 0 24 2 10 24 9 1 2 10 4 14 9 2 24 1 3 10 2 9 3 3 0 3 2 1 2 10 24 10 2 10 1 10 1 21 3 20 9 2 12 10 4 2 3 10 3 20 2 1 23 3 3 2 3 2 9 2 24
split_gain=24890 12307.5 5888.98 2994.79 2361.81 2088.79 1947.99 1122 1069.07 1009.44 989.676 695.266 682.466 675.882 636.104 540.985 445.491 407.719 378.046 336.5 335.875 318.695 317.277 307.296 261.427 277.389 261.261 259.719 251.89 247.862 246.698 245.146 238.56 237.393 286.112 196.697 180.092 169.12 154.667 150.31 146.7 140.637 139.704 130.879 212.373 129.603 135.449 128.702 128.532 201.114 127.625 126.06 122.812 121.047 153.391 121.026 121.009 181.805 195.336 115.034 99.2699 98.7696 97.0825
threshold=487.50000000000006 9.5000000000000018 0.93244248982950706 0.97144105711750395 900.00000000000011 0.979483751468471 1.0000000180025095e-35 0.94380912176880594 312.50000000000006 1.0000000180025095e-35 11.500000000000002 0.94949024291666217 0.88714862820906459 775.00000000000011 0.93244248982950706 70.500000000000014 8.5000000000000018 0.88406088040005448 1.0000000180025095e-35 0.97871344651136227 0.92333436663740065 1387.5000000000002 0.94951722947665251 17.500000000000004 0.95316819169998868 0.94976303837613407 0.99307561582971982 0.91706203854797608 0.88714862820906459 0.94949024291666217 0.95417761697851633 1062.5000000000002 1.0000000180025095e-35 3625.0000000000005 0.96324663557258572 1737.5000000000002 0.94949024291666217 1162.5000000000002 0.94949024291666217 5.5000000000000009 0.85984263776225089 2.5000000000000004 7.5000000000000009 0.96490494291930473 6.5000000000000009 262.50000000000006 0.93244248982950706 0.96927977929545761 0.93091074186944511 1387.5000000000002 0.93091074186944511 1.0000000180025095e-35 0.88714862820906459 0.95754375331593389 81.500000000000014 0.95316819169998868 0.98969501236963497 0.96490494291930473 0.95424982176873285 0.94951722947665251 14.500000000000002 0.88714862820906459 1.0000000180025095e-35
decision_type=2 2 2 2 2 2 2 2 2 2 2 2 2 2 2 2 2 2 2 2 2 2 2 2 2 2 2 2 2 2 2 2 2 2 2 2 2 2 2 2 2 2 2 2 2 2 2 2 2 2 2 2 2 2 2 2 2 2 2 2 2 2 2
left_child=8 16 5 4 7 6 13 17 45 11 -10 27 -8 22 24 52 33 -4 29 31 -15 51 -3 30 25 40 28 -6 -7 56 -13 -5 36 -2 42 59 -19 -30 41 -22 -12 -16 -35 -29 -45 -1 -47 -17 49 61 -44 -14 -11 54 -38 -50 57 58 -9 -18 -27 -41 -33
right_child=1 2 3 19 9 26 12 18 10 15 14 23 21 20 38 47 35 32 -20 -21 39 -23 -24 -25 -26 60 -28 43 37 -31 -32 62 -34 34 -36 -37 53 -39 -40 48 -42 -43 50 44 -46 46 -48 -49 55 -51 -52 -53 -54 -55 -56 -57 -58 -59 -60 -61 -62 -63 -64
leaf_value=0.050630316080723714 0.043484251048794859 -0.06425385639225499 -0.057631397904651153 0.022510057938843059 -0.095580404179058706 -0.055831492042951153 -0.08128374998011384 0.010225102136773318 0.045628610382949714 -0.032946538329060818 -0.048451842867619305 -0.035697931131031729 0.02518247079387656 -0.10073602684585936 0.022113356144950407 -0.061745673928383905 -0.0079689111176336931 -0.038328377126771174 0.043894720649491105 0.043984726393847248 -0.090898342696928133 -0.045118122161736204 -0.02518006806224829 -0.051998266832519159 0.021470082931758647 -0.00043534157732633654 0.035446265212350947 -0.067123622808595837 0.014902432302965006 0.021354669900140077 0 -0.017482574879004304 0.017233452161725834 0.0050061769000996981 0.035560199849245987 -0.03012374984507693 0.0069392113333815418 -0.028584892213189578 0.031680614938465523 -0.071582414255178237 -0.0035522683812942192 -0.0067765102331527735 0.016490452253221179 -0.0056840879387478624 -0.060103725217103943 0.01833034122713403 0.043883241667701717 0.010464090368683085 -0.091026558896316792 -0.069253760685480614 -0.086694075936069648 -0.00815613569441242 0.024098834573111141 -0.028118631725766976 -0.030866703817429987 -0.062360197736076241 -0.036482842196567548 0.023570341051657069 -0.041992165967479997 0.032920677768684813 -0.1023724082908067 -0.015377286640753995 0.025320077135381865
leaf_weight=12152.173825979233 5715.9201026894152 2265.895166747272 743.96477368101478 1730.0672696866095 719.35783519223332 282.65896785631776 342.21351298689842 324.48983841761947 4177.6932817846537 94.480992987751961 236.25981603190303 1402.6772601902485 589.97716783732176 2264.3232933469117 1205.2430777698755 360.03571812808514 254.86294496804476 1078.718368858099 804.49923835322261 1179.8112359046936 1502.1749552153051 340.54088644310832 727.78027291595936 1837.9270050637424 381.80864577367902 34.812889281660318 307.82580559328198 2154.8589815162122 550.27363596484065 1215.2178144603968 718.70917912572622 724.59789469093084 435.01946819573641 180.12714317068458 593.54695860669017 290.70483128726482 960.19466848671436 360.41995882987976 2496.1884635612369 99.430861663073301 760.40616745501757 621.91418251395226 32.325618073344231 288.47866057232022 527.48464170098305 696.01421367004514 3003.2513069920242 64.054980751127005 1144.5551948398352 1221.3481756597757 98.656507935374975 515.2639225050807 804.21355690062046 804.0059296824038 358.74869177863002 848.4372193031013 307.23314728587866 433.82154908031225 366.02519504725933 453.59208852425218 131.66812034323812 374.80159105733037 148.43370105326176
leaf_count=382495 172241 29617 11141 43065 7938 4184 4335 7725 126778 1700 4439 24039 14093 21324 32177 5841 5338 18770 23350 35378 16499 5810 14215 28588 9956 772 8402 28664 13361 30809 16023 14311 10690 4321 17245 5162 21211 6853 68471 1052 16152 15027 859 6591 8834 18275 90617 1681 11701 12337 1216 11880 21054 15189 6317 12423 5831 11393 6612 12180 1553 6590 3764
internal_value=0 -0.0224376 -0.0352013 -0.0182515 -0.0273043 -0.0605517 -0.0673768 -0.00718778 0.0398915 -0.0448087 0.0270275 -0.0517776 -0.0188378 -0.075633 0.0136876 -0.00423465 0.0349976 -0.0239828 0.0140653 0.0218622 -0.0838189 -0.00342837 -0.0549535 -0.0369241 -0.0136844 -0.0255218 -0.00467372 -0.067504 -0.015439 0.00477331 -0.0235641 0.0116099 -0.0168915 0.0396918 0.0152431 0.00356013 -0.0216452 -0.0021603 0.0235357 -0.0762117 -0.0148196 0.0121606 -0.0226406 -0.0603238 -0.0414684 0.0480062 0.0392053 -0.0502733 -0.0699333 -0.0583532 -0.0600921 0.00948206 0.0175299 -0.012911 -0.00331065 -0.0793201 -0.0091792 -0.00124204 -0.0173014 0.0179567 -0.0837054 -0.0289128 -0.00971778
internal_weight=0 41944.8 34325 20587.1 16804.2 13737.9 12236.7 7831.94 25897.4 8972.28 10046 7649.49 1788 10448.7 5868.3 1322.79 7619.74 4380.65 3451.29 3782.91 7455.07 1445.78 2993.68 3959.31 1544.96 1163.15 1501.18 3690.18 1193.35 2646.79 2121.39 2603.1 3636.69 6620.58 904.656 999.16 3201.67 910.694 4323.35 5190.75 996.666 1827.16 311.109 2970.82 815.963 15851.4 3699.27 424.091 3688.57 1695.58 130.982 1105.24 898.695 2122.95 1318.94 1992.99 1431.57 1124.34 690.515 708.455 166.481 474.232 873.032
internal_count=1596459 829747 611185 416509 319991 194676 161876 169038 766712 150953 275325 120677 36118 125758 148547 30276 218562 83318 85720 96518 81926 31783 43832 68650 32872 22916 32800 52027 24398 62370 40062 61140 72177 195882 23641 22680 61487 20214 115675 60602 20591 47204 6396 44089 15425 491387 108892 7522 44103 19979 2075 25973 22754 42717 27528 24124 31561 25730 14337 17518 2325 7642 18075
is_linear=0
shrinkage=0.05


Tree=8
num_leaves=64
num_cat=0
split_feature=11 9 11 11 4 9 11 10 10 9 23 11 22 2 11 10 2 10 11 10 5 22 22 11 10 11 3 2 2 13 10 2 11 11 0 24 16 26 10 5 24 13 21 26 22 10 23 10 3 23 10 26 9 9 15 5 3 4 0 23 4 10 10
split_gain=115985 9536.18 4499.2 2777.12 879.458 849.603 688.346 410.276 403.19 353.156 325.492 305.422 265.618 453.664 233.395 204.467 195.198 165.832 240.052 168.641 118.92 116.199 113.934 110.646 110.572 106.186 97.928 87.8568 86.8608 79.9907 79.2469 72.1309 71.7677 67.2523 64.7691 57.0703 52.8444 51.9155 51.0737 50.9491 49.3868 49.3566 48.3304 47.9504 47.8598 46.0489 77.4929 45.1066 43.8041 42.9777 38.3717 38.1322 37.7484 36.7409 36.0805 35.3941 35.1583 34.4424 33.7484 33.5792 30.9393 29.6831 29.0418
threshold=0.00073661240858693088 8.5000000000000018 0.00053342816500711254 0.00094900619094167497 0.97102824610414362 7.5000000000000009 0.00031291296190553882 262.50000000000006 262.50000000000006 9.5000000000000018 30.500000000000004 0.00066796729840208114 2.5000000000000004 0.85970715492245298 0.00086300795978215344 562.50000000000011 0.93913894551071497 612.50000000000011 1.0000000180025095e-35 262.50000000000006 0.94737939218035383 4.5000000000000009 2.5000000000000004 0.00044971946688373735 262.50000000000006 0.0010847390157734988 0.91706203854797608 0.85970715492245298 0.96490494291930473 1480.0000000000002 387.50000000000006 0.91928879981653655 0.00044971946688373735 0.0007870967741935485 0.94526022588281022 1.0000000180025095e-35 6.8146825396825408 1.0000000180025095e-35 387.50000000000006 0.93619732787037113 1.0000000180025095e-35 724.50000000000011 20.500000000000004 1.0000000180025095e-35 2.5000000000000004 737.50000000000011 36.500000000000007 387.50000000000006 0.9797581813409072 1.0000000180025095e-35 812.50000000000011 1.0000000180025095e-35 11.500000000000002 10.500000000000002 65.500000000000014 0.93619732787037113 0.96341441580927445 0.93244248982950706 0.94526022588281022 2.5000000000000004 0.93244248982950706 437.50000000000006 737.50000000000011
decision_type=2 2 2 2 2 2 2 2 2 2 2 2 2 2 2 2 2 2 2 2 2 2 2 2 2 2 2 2 2 2 2 2 2 2 2 2 2 2 2 2 2 2 2 2 2 2 2 2 2 2 2 2 2 2 2 2 2 2 2 2 2 2 2
left_child=1 4 6 9 5 16 17 42 57 -2 20 22 23 -14 24 -12 41 18 -3 -20 32 51 26 37 -11 -5 39 -24 49 31 -15 -17 -7 60 -28 36 -32 -10 -30 -9 50 -1 -4 -25 53 -6 -47 -39 -40 -21 -29 -19 -50 -13 -41 -55 -22 -8 -57 -36 -26 -61 -45
right_child=3 2 7 25 45 10 8 11 12 14 15 44 13 30 -16 29 -18 21 19 28 56 -23 27 43 33 -27 34 40 38 -31 35 -33 -34 -35 59 -37 -38 47 48 54 -42 -43 -44 62 -46 46 -48 -49 52 -51 -52 -53 -54 55 -56 58 -58 -59 -60 61 -62 -63 -64
leaf_value=-0.051802006272717853 0.039395647186816908 -0.19359944116676672 0.036413149816203215 0.039733729419093894 0.048731415790357405 -0.12021439456259274 -0.032410375128615464 -0.010806039825069367 -0.021421841185148536 0.035946015220124007 0.0098461758942957854 -0.0020202879499965644 0.020991547838130977 0 0.018166279383484259 0.0021365903035664067 0.045818078869337031 -0.042380649680506921 0.00060812542737417538 -0.019087162379130444 -0.026305896870304674 -0.10254974432743341 0.028686541770493817 0 -0.033976663088976879 0.051572562239112663 -0.079297646793652074 -0.021508938981027383 -0.0075654174537160271 0.0033006679920732224 -0.10901489892898795 -0.14174327558958752 -0.015156540328996566 -0.0035266839599968156 -0.022149783383864183 -0.028560799173349905 -0.034177856156019412 -0.075000650649589787 -0.0083663487847856818 -0.017880070827904052 0 0.017673062293697171 -0.048452042985247232 -0.081977297999932391 -0.0070981744890454479 0.034366620829635174 -0.038074138673578582 -0.11526695198297526 -0.012852172612086349 -0.1098831827094871 -0.076305436354056566 -0.13137340672068543 -0.10327969770892852 -0.0053709986343364394 -0.10588317161176362 -0.059394175255892911 0.018804641685875787 0.027979420683868651 -0.036574223408942029 -0.035976678368418266 -0.013048455790730818 -0.064796672370335109 -0.10300236452051106
leaf_weight=71.518490139394999 730.20074395462871 83.942362375557423 123.51677641272545 2390.0237582847476 874.7292136028409 33.832544203847647 25.14303295314312 25.034716095775366 27.245692297816277 118.70008041337132 24.456166002899408 67.601893786340952 108.24539628252387 27.778756912797689 1279.7222157940269 5.2518751472234717 319.64833302795887 32.212797630578279 35.217696849256754 24.645415358245373 65.386954110115767 696.23590386286378 36.01228167116642 13.368521798402069 349.93728763237596 38842.943329591304 915.04256773740053 80.453570853918791 45.698164284229279 6.6410485990345469 334.93692582845688 181.22526727989316 41.280964106321335 1193.9522299021482 96.967595692723989 50.107024949043989 48.784910455346107 183.39244293048978 29.834082819521427 23.826287642121315 39.122896034270525 24.725432127714157 8.0638931542634946 762.48695305734873 130.24275977909565 145.99951987713575 36.517934162169695 3765.2450702674687 23.933018796145916 1264.5545376315713 105.66595395281911 6766.9260061755776 94.657330580055714 71.403701111674309 380.55993970111012 420.0161055997014 91.036678910255432 55.66083611920476 577.96733789518476 193.07717934250832 508.90569855645299 1019.3694118075073 1239.0932836942375
leaf_count=1046 21347 482 2961 67678 26978 343 362 247 221 3170 528 1263 1455 403 30827 87 9051 203 618 154 1180 3959 629 169 5620 1233016 10012 1206 566 127 2410 1687 730 25176 1150 622 340 1901 243 246 761 469 171 6799 2263 3822 752 21759 260 7358 1291 32536 671 1052 3855 5756 2425 1140 9167 3044 10256 11533 8906
internal_value=0 -0.0929359 -0.10313 0.0469644 0.0132701 -0.0237863 -0.115557 -0.0575735 -0.102578 0.00804502 -0.0709149 -0.0603314 -0.103946 -0.0677563 0.00124504 -0.113933 0.0269898 -0.124881 -0.106744 -0.100544 -0.0264129 -0.128577 -0.0694146 -0.107228 -0.00865007 0.0509022 -0.0726632 -0.0340309 -0.103101 -0.130551 -0.0891013 -0.136516 -0.0739782 -0.0115117 -0.0673447 -0.094246 -0.101245 -0.11314 -0.0624612 -0.0974854 -0.0459142 -0.031617 0.0263916 -0.0949374 -0.0388609 0.0437613 0.0173493 -0.113654 -0.0762405 -0.1085 -0.0561979 -0.131051 -0.0893931 -0.0421878 -0.101858 -0.0444531 0 0.0049354 -0.0469203 -0.0582645 -0.0221563 -0.0607436 -0.0955646
internal_weight=0 21975.5 20053.3 45414.4 1922.25 865.004 15739.3 4313.94 6641.49 4181.42 449.111 4182.36 6560.68 569.853 3451.22 217.574 415.892 9097.86 1602.48 1518.54 231.537 7495.37 2915.13 5990.83 2171.5 41233 2653.88 261.255 1483.32 193.118 461.608 186.477 75.1135 2052.8 2224.46 433.829 383.722 3975.88 194.123 429.421 225.242 96.2439 131.581 2014.95 1267.23 1057.25 182.517 3948.64 148.424 1289.2 186.12 6799.14 118.59 1136.99 404.386 1069.39 156.424 80.8039 997.983 1309.41 858.843 1212.45 2001.58
internal_count=1596459 199369 150144 1397090 49225 17673 93537 56607 46487 96396 7107 53475 44985 5230 75049 2429 10566 47050 10352 9870 4678 36698 33974 39755 44222 1300694 30087 3887 9252 1901 3775 1774 1073 41052 25739 3372 2750 23881 1740 4348 3258 1515 3132 15874 19501 31552 4574 23660 1174 7512 2497 32739 931 17238 4101 15975 3605 1502 14923 15727 15876 14577 15705
is_linear=0
shrinkage=0.05


Tree=9
num_leaves=64
num_cat=0
split_feature=10 9 4 10 24 1 1 10 2 9 24 2 4 10 14 3 2 1 24 10 1 1 2 2 2 3 24 4 3 3 9 10 4 9 2 2 1 10 22 10 4 9 10 9 3 1 1 3 22 2 2 10 21 9 3 2 3 2 2 1 2 9 2
split_gain=21291.1 9960.43 4334.4 2077.28 1445.73 1318.59 1155.07 1071.54 991.395 943.98 934.855 563.204 552.726 516.433 476.304 444.33 408.733 394.837 346.822 302.672 302.183 293.361 269.229 264.628 262.834 254.904 231.256 224.392 215.656 210.572 173.867 250.697 256.198 169.078 181.415 164.382 147.459 142.123 139.376 137.112 134.255 131.966 165.134 131.366 129.517 128.799 125.153 118.591 115.851 113.957 108.399 108.08 96.4546 96.2242 95.6506 159.822 149.131 95.5042 93.3642 95.8851 92.6333 103.302 90.6226
threshold=487.50000000000006 9.5000000000000018 0.93244248982950706 900.00000000000011 1.0000000180025095e-35 0.97871344651136227 0.97871344651136227 312.50000000000006 0.94380912176880594 11.500000000000002 1.0000000180025095e-35 0.88714862820906459 0.93244248982950706 775.00000000000011 69.500000000000014 0.88419247019737357 0.94380912176880594 0.97871344651136227 1.0000000180025095e-35 1387.5000000000002 0.94949024291666217 0.94949024291666217 0.93411013379209973 0.94951722947665251 0.88406088040005448 0.92333436663740065 1.0000000180025095e-35 0.97102824610414362 0.95316819169998868 0.94976303837613407 7.5000000000000009 2400.0000000000005 0.93244248982950706 17.500000000000004 0.96665791396772605 0.85970715492245298 0.94949024291666217 1737.5000000000002 2.5000000000000004 262.50000000000006 0.93244248982950706 7.5000000000000009 687.50000000000011 13.500000000000002 0.9608065895462391 0.94949024291666217 0.94517522857117009 0.85984263776225089 1.0000000180025095e-35 0.96927977929545761 0.95417761697851633 687.50000000000011 4.5000000000000009 9.5000000000000018 0.98969501236963497 0.96490494291930473 0.95424982176873285 0.94380912176880594 0.88714862820906459 0.93608197865142262 0.88714862820906459 14.500000000000002 0.92310747734916088
decision_type=2 2 2 2 2 2 2 2 2 2 2 2 2 2 2 2 2 2 2 2 2 2 2 2 2 2 2 2 2 2 2 2 2 2 2 2 2 2 2 2 2 2 2 2 2 2 2 2 2 2 2 2 2 2 2 2 2 2 2 2 2 2 2
left_child=7 16 4 8 5 13 10 39 17 53 15 -6 28 23 50 -5 22 24 20 48 54 46 -2 -3 -4 62 38 41 29 47 -18 -32 -33 34 -23 -8 60 -7 43 -1 -41 -24 -43 -26 57 -27 58 -11 -13 -16 -12 -45 -47 -9 55 56 -10 -35 -17 -60 -14 -62 -15
right_child=1 2 3 6 11 37 35 9 18 12 14 19 36 25 49 21 30 -19 -20 -21 -22 33 27 -25 26 45 -28 -29 -30 -31 31 32 -34 44 -36 -37 -38 -39 -40 40 -42 42 -44 51 -46 52 -48 -49 -50 -51 -52 -53 -54 -55 -56 -57 -58 -59 59 -61 61 -63 -64
leaf_value=0.050362471195804184 0.032581965569336659 -0.053042251613724056 -0.040966953664288513 -0.071475278378055493 -0.062794049329809407 0.024899155256953739 -0.026582010956961229 0.050368172453862749 0.011667219920006839 -0.042694828809882839 0.0039162220946698349 -0.0061658793310619825 -0.016372821872570009 -0.087148055312166781 -0.049011819720705514 -0.063751782614688918 0.050743572982386777 0.046894847582340971 0.044585050906217422 -0.035907776641156908 0.024627641847373705 -0.026740223531571641 0.0079009136191553649 -0.019344899961203244 0.0042295857763531312 -0.071592172561572534 0.020272460538166864 0.044746328856969254 0.020330720973882329 -0.071584611826368258 0.038585953106301474 -0.076377358679094759 0.015852453662707804 -0.037571265506220634 0.0037841899527450208 0.04521990131803056 0.03057324275522599 -0.030129160184089829 0.022494574519308388 0.017118030655892142 0.043121221676604107 0.018599488991294832 -0.055892306183222995 -0.014377494236960496 -0.065731775954474228 -0.071344776890709782 -0.055271527725504511 -0.0029904723971066402 0.024675303445012144 0.013548827368415856 0.036779257445438245 -0.034789340866092186 -0.049315030635145765 0.031654840573528013 -0.028126428084397193 0.024297693485958404 -0.031597038401295241 -0.002844897792538941 -0.04358595472966003 -0.014633911574162821 0.0084116842661246857 0.039838475733169149 -0.05571157884936994
leaf_weight=11058.211121855304 662.77829700708389 2532.9261777196079 920.75487229786813 1067.2443607598543 442.42165869474411 484.97822957672179 81.976080035790801 2699.3467678502202 341.26908627152443 248.05610371381044 525.78120905160904 479.85194562375546 245.9012928456068 2171.9775162041187 414.60723217017949 248.700061108917 2309.6596107818186 243.88663716241717 976.69428107328713 423.00067003257573 1805.3149584755301 1818.4832966495305 202.45605200342834 810.21366548910737 528.75529253296554 2602.1288003604859 494.30114792101085 135.69771201908588 366.41327838227153 179.71392283961177 2799.7381027303636 77.335720943287015 528.14297903701663 1202.0347883291543 641.74304990284145 534.7888771481812 2365.0264421962202 141.22869330458343 210.32175803929567 669.20763361826539 2775.3207711894065 84.253796931356192 327.24787406437099 1769.3541533686221 381.33183310180902 814.35410384833813 2160.1685254815966 760.76231206767261 760.91392748616636 76.217413615435362 511.10763639956713 1109.8897073343396 2425.576472690329 1142.4255178421736 342.76360429078341 464.60818462073803 436.91224587336183 257.68575025349855 581.28368870355189 653.49705376848578 1188.0329280756414 341.74340900219977 392.44514621049166
leaf_count=382495 19452 31688 14073 12491 5574 13008 1574 91894 8395 4439 12050 10933 5527 18335 6594 2466 77073 8063 30706 7262 49109 31801 5084 15972 12224 27251 12704 4523 9956 2325 89128 1265 14790 17318 14588 17635 68471 2630 5002 18275 90617 2342 4905 34493 5515 8452 28544 16152 19544 2098 15424 18286 29660 34884 6438 12908 7900 5521 10001 12588 31544 10133 4367
internal_value=0 -0.0199552 -0.0308491 -0.0161968 -0.0518523 -0.0583723 -0.0308782 0.0389337 0.000774427 0.025814 -0.0347868 -0.0133284 0.0127965 -0.0621412 0.00121711 -0.0409124 0.0339073 -0.0137706 0.0183974 0 0.010672 -0.0366907 0.00950623 -0.0450323 -0.0168468 -0.0688539 -0.0112998 -0.0107265 -0.0124608 -0.022864 0.0398672 0.0322898 0.00261652 -0.0275904 -0.0186937 0.0350058 0.0223487 0.0118171 -0.0157258 0.0475207 0.0382058 -0.0239085 -0.0399678 -0.0182166 -0.0391789 -0.0626159 -0.0472602 -0.0133219 0.012594 -0.0387214 0.0205506 -0.0224255 -0.0551316 0.0449649 -0.00511601 0.0012046 -0.0123991 -0.0316722 -0.0351352 -0.0287048 0.0111445 0.0158077 -0.0826694
internal_weight=0 42410.8 35283.5 20801.5 14482 12375.8 11156.7 24040.2 9644.83 9537.42 10539.9 2106.19 5695.65 11749.6 1527.71 9012.17 7127.31 5277.26 4367.56 1663.77 3390.87 7944.93 1412.43 3343.14 5033.38 8406.48 4112.62 749.655 1554.95 1188.53 5714.88 3405.22 605.479 4301.28 2460.23 616.765 4140.7 626.207 3618.32 14502.7 3444.53 613.958 411.502 3408 1841.05 5842.06 3643.65 1008.82 1240.77 490.825 1036.89 2879.24 3239.93 3841.77 1585.55 1242.79 778.181 1459.72 1483.48 1234.78 1775.68 1529.78 2564.42
internal_count=1596459 829747 611185 416509 194676 151363 196208 766712 220301 275325 176999 43313 148547 135725 36166 140833 218562 104845 115456 37739 84750 128342 36306 47660 96782 88065 82709 16854 32872 22916 182256 105183 16055 74743 46389 19209 115675 15638 70005 491387 108892 12331 7247 65003 28354 65363 53599 20591 30477 8692 27474 52779 38112 126778 35641 29203 16295 22839 25055 22589 47204 41677 22702
is_linear=0
shrinkage=0.05


Tree=10
num_leaves=64
num_cat=0
split_feature=10 9 4 0 2 0 24 9 10 24 1 4 10 18 10 10 9 1 2 0 10 2 0 24 3 1 10 18 2 1 3 10 3 20 9 1 9 3 4 3 18 10 10 23 1 5 12 21 3 3 3 10 10 4 1 3 2 3 2 1 20 2 1
split_gain=19665.8 8960.74 3910.2 2274.35 1608.95 1343.12 1169.59 1078.48 1010.06 1008.41 776.501 662.882 625.587 522.719 420.736 343.253 320.106 285.882 282.749 232.69 232.301 272.345 218.568 212.052 208.771 198.776 193.843 180.4 179.472 171.205 169.868 159.29 152.919 135.454 132.434 172.002 128.555 127.635 126.398 126.076 126.001 125.856 121.676 116.016 134.559 113.977 103.77 99.8547 97.3197 96.3458 90.8314 90.3037 89.3576 85.2174 100.315 83.6079 104.446 160.705 82.7999 82.6434 79.7756 79.6479 79.1006
threshold=487.50000000000006 8.5000000000000018 0.93244248982950706 0.97144105711750395 0.94380912176880594 0.979483751468471 1.0000000180025095e-35 11.500000000000002 262.50000000000006 1.0000000180025095e-35 0.94949024291666217 0.93244248982950706 900.00000000000011 9.5000000000000018 900.00000000000011 737.50000000000011 17.500000000000004 0.97871344651136227 0.94951722947665251 0.979483751468471 2912.5000000000005 0.96324663557258572 0.99307561582971982 1.0000000180025095e-35 0.95316819169998868 0.94949024291666217 1062.5000000000002 5.5000000000000009 0.85970715492245298 0.94949024291666217 0.92333436663740065 1387.5000000000002 0.94976303837613407 1.5000000000000002 20.500000000000004 0.94949024291666217 7.5000000000000009 0.91706203854797608 0.97102824610414362 0.93091074186944511 10.500000000000002 1162.5000000000002 1387.5000000000002 81.500000000000014 0.95754375331593389 0.93619732787037113 5.5000000000000009 5.5000000000000009 0.93091074186944511 0.93953351507027383 0.91706203854797608 900.00000000000011 900.00000000000011 0.97102824610414362 0.95754375331593389 0.95424982176873285 0.96324663557258572 0.98969501236963497 0.88714862820906459 0.96496499698769511 1.0000000180025095e-35 0.92310747734916088 0.94517522857117009
decision_type=2 2 2 2 2 2 2 2 2 2 2 2 2 2 2 2 2 2 2 2 2 2 2 2 2 2 2 2 2 2 2 2 2 2 2 2 2 2 2 2 2 2 2 2 2 2 2 2 2 2 2 2 2 2 2 2 2 2 2 2 2 2 2
left_child=7 20 5 4 10 6 14 -1 -9 12 16 19 25 31 18 43 23 26 -3 24 -2 36 28 49 32 55 -5 -17 -7 33 -16 60 -10 -13 35 46 -22 -29 -36 -38 -25 59 -11 44 -12 -18 -14 -32 -49 52 -46 61 58 -37 -55 -6 -57 -58 -4 -30 -8 -15 -28
right_child=1 2 3 17 9 22 13 8 11 42 15 29 34 51 30 27 45 -19 -20 -21 21 -23 -24 40 -26 -27 62 37 41 -31 47 -33 -34 -35 38 53 39 -39 -40 -41 -42 -43 -44 -45 50 -47 -48 48 -50 -51 -52 -53 -54 54 -56 56 57 -59 -60 -61 -62 -63 -64
leaf_value=0.048744120928355117 0.043232689958435114 -0.053074496885107403 -0.03533961000219215 0.022212524671994298 0.011513250952164303 -0.060178887788834935 0.028198319806727986 0.048412718019065389 -0.015899765949947058 0.039741539846821432 0.016821856425339583 0.025841872455239202 -0.0012267330123921878 -0.054195950722834778 -0.078746148860768542 0 -0.011127183353496025 0.043060762434253941 -0.023180857693304659 0.033271658253428787 0.011258311605916199 0.035479867509962168 0.034904288429979911 0.022172763982011331 0.018966839835693621 0.020301751189980288 0.01487947363575113 -0.046928651284000214 -0.015840332042635831 0.033098348899260312 -0.07312466024206081 -0.026893371807499691 -0.06093535266179128 0.0010978785037881434 -0.087515230302006683 -0.019465103742776727 0.015842876180330361 -0.025984033951656618 -0.033453313014641765 -0.066435113929999665 -0.035280199834973595 -0.02556458580698593 -0.0027245795248524171 -0.026759234874454391 -0.036965547478496688 -0.064926970330780709 -0.040846123604017966 -0.046003163441248468 -0.064000532790661827 -0.062304287517162195 0 -0.05913916934288848 -0.046541491484409669 0.031924115859600748 -0.010989700028674875 -0.036401003645762112 0.018774832558934324 -0.027872868570987815 -0.0015340971002889732 0.021418274000548097 -0.0019229216985420167 0.0052746475450684682 -0.015862143510664162
leaf_weight=12120.361476941034 4732.6560988053679 3446.8715930301696 468.68580412492156 1706.9121249821037 418.1863027215004 159.15428661927581 525.53801233693957 3684.1813645157963 1153.756896417588 1230.2967868149281 773.90096333809197 1229.6514812260866 210.02347663603723 79.298787716776133 2108.6013781167567 444.01389532908797 119.6558176074177 1069.5407009068877 1100.0671254973859 277.53338268958032 224.12695117294788 776.99030765146017 296.61420824564993 224.06704153493047 342.86871480382979 1192.8978725485504 292.80031942762434 1279.0506732668728 205.68901125527918 3105.2597476113588 1384.9850395005196 273.27219332568347 227.29322563484311 1039.9334416240454 154.57165989279747 775.95631834119558 56.054547598585486 2049.7108512427658 491.25754141062498 142.15403038449585 150.73614956438541 417.52128293924034 181.2139007486403 432.7132193017751 245.54687101766467 2219.2413116972893 1109.7332731150091 1802.1793214585632 1905.5454509686679 496.38002677448094 491.38342795334756 530.59641251713037 907.58905791677535 215.7445199098438 324.08665182627738 351.43528336286545 379.62840885110199 338.5202974639833 318.70798581466079 442.92082970589399 345.86909444257617 131.09479420632124 638.95289679989219
leaf_count=432209 161224 39256 6957 44502 10502 1775 13266 131894 23542 38929 18134 36227 4606 1147 17352 9051 1658 35966 19704 7852 5906 25226 8617 5633 9419 32222 6683 18528 3711 95055 13254 4368 3182 27332 1570 14699 1624 32536 8750 1902 2869 7475 4650 7359 4116 24526 17424 19044 20523 6508 10423 7200 11379 5683 6774 5819 10505 6146 6626 11669 8104 3290 12377
internal_value=0 -0.0187635 -0.0279471 -0.0143109 -0.0216646 -0.0474353 -0.0524059 0.0384084 0.0270259 -0.00367385 -0.0341154 0.016259 -0.0127086 -0.0155708 -0.0582787 -0.0214546 -0.0487456 0.0212695 -0.0459638 -0.00817991 0.0382085 0.0179822 -0.00269115 -0.0360642 -0.0151508 0.00512701 0.0122132 -0.0302411 -0.0122034 0.0254042 -0.0659452 0.00545504 -0.0238762 0.0146683 -0.0273264 -0.0220258 -0.013707 -0.0342232 -0.0479107 -0.0423224 -0.000600022 -0.00431658 0.0341329 -0.00420284 0.00222657 -0.0623401 -0.0347858 -0.0604521 -0.0554672 -0.041986 -0.0127862 -0.0480244 -0.0355586 -0.00887287 0.00597489 -0.00692753 -0.0144089 -0.00295139 -0.0221607 0.00916202 0.0160731 -0.0174479 -0.00588081
internal_weight=0 42790.9 36859 21703.1 17994.9 15155.8 13633.9 23180.8 11060.5 7373.55 10621.4 7376.3 5962.04 1885.67 11748.2 5716.32 4905.06 3708.21 4546.94 2001.45 5931.98 1199.33 1521.9 2566.17 1723.92 2680.67 2638.67 3772.78 1225.29 5374.84 7201.31 1144.68 1381.05 2269.58 3281.37 2635.54 422.336 3328.76 645.829 198.209 374.803 1066.13 1411.51 1943.54 1510.83 2338.9 1319.76 5092.71 3707.72 2191.36 736.93 740.99 1694.98 1315.79 539.831 1487.77 1069.58 718.149 787.394 648.61 871.407 210.394 931.753
internal_count=1596459 829747 633865 434110 334582 199755 166508 766712 334503 168279 166303 202609 124700 37375 129133 100147 66156 99528 58960 43995 195882 34658 33247 39972 36143 65194 63562 60115 24630 158614 70173 25738 26724 63559 59506 49186 9432 51064 10320 3526 8502 22855 43579 40032 32673 26184 22030 52821 39567 31470 14539 11637 24962 27156 12457 32972 22470 16651 13583 15380 21370 4437 19060
is_linear=0
shrinkage=0.05


Tree=11
num_leaves=64
num_cat=0
split_feature=10 9 0 4 10 10 9 24 2 2 4 4 24 2 10 24 1 0 1 10 1 10 2 2 9 1 10 24 2 0 2 1 20 10 10 9 4 2 24 3 3 20 9 3 3 1 3 20 9 24 1 4 3 2 1 1 2 12 2 0 9 5 3
split_gain=18180.1 8102.66 3361.69 2561.39 1423.09 1090.95 903.296 889.832 767.495 643.373 544.285 473.421 416.667 368.429 340.2 334.832 323.344 285.212 277.683 258.032 255.099 229.295 255.138 211.719 186.9 182.484 179.363 176.167 171.521 165.602 161.559 154.569 146.104 145.321 140.624 137.022 130.577 125.975 136.379 123.088 118.083 114.357 113.288 113.246 114.794 110.356 109.008 107.759 104.937 101.266 99.4026 98.2604 93.438 92.4133 91.6047 87.15 86.0647 82.9639 80.8864 80.0049 79.3105 78.7398 76.506
threshold=487.50000000000006 8.5000000000000018 0.97144105711750395 0.93244248982950706 900.00000000000011 312.50000000000006 11.500000000000002 1.0000000180025095e-35 0.94380912176880594 0.95417761697851633 0.93244248982950706 0.93244248982950706 1.0000000180025095e-35 0.88714862820906459 775.00000000000011 1.0000000180025095e-35 0.94949024291666217 0.99307561582971982 0.97871344651136227 1012.5000000000001 0.94949024291666217 2912.5000000000005 0.96324663557258572 0.88714862820906459 21.500000000000004 0.94949024291666217 1062.5000000000002 1.0000000180025095e-35 0.88714862820906459 0.979483751468471 0.95532586956533405 0.95754375331593389 2.5000000000000004 262.50000000000006 1162.5000000000002 12.500000000000002 0.93244248982950706 0.88714862820906459 1.0000000180025095e-35 0.93953351507027383 0.85984263776225089 1.0000000180025095e-35 7.5000000000000009 0.95316819169998868 0.94976303837613407 0.94949024291666217 0.93091074186944511 4.5000000000000009 9.5000000000000018 1.0000000180025095e-35 0.94949024291666217 0.97102824610414362 0.91706203854797608 0.85970715492245298 0.94949024291666217 0.96496499698769511 0.91928879981653655 5.5000000000000009 0.85970715492245298 0.95386510915859812 10.500000000000002 0.93619732787037113 0.93953351507027383
decision_type=2 2 2 2 2 2 2 2 2 2 2 2 2 2 2 2 2 2 2 2 2 2 2 2 2 2 2 2 2 2 2 2 2 2 2 2 2 2 2 2 2 2 2 2 2 2 2 2 2 2 2 2 2 2 2 2 2 2 2 2 2 2 2
left_child=5 21 3 7 8 33 48 14 20 16 17 27 24 -9 30 25 37 23 26 -15 35 -2 42 -4 45 -10 -12 29 -16 43 61 39 -13 -1 55 -5 60 -6 -39 -22 -18 -21 -23 44 -8 57 -44 49 -7 -42 -30 -26 -33 -37 -34 -25 -43 -11 -20 -54 -35 -3 -62
right_child=1 2 10 4 9 6 11 13 15 12 18 32 -14 19 28 -17 40 -19 58 41 31 22 -24 34 51 -27 -28 -29 50 -31 -32 52 54 36 -36 53 -38 38 -40 -41 47 56 46 -45 -46 -47 -48 -49 -50 -51 -52 -53 59 -55 -56 -57 -58 -59 -60 -61 62 -63 -64
leaf_value=0.050100305194417029 0.042812049291857932 -0.0083028936595854388 -0.046423485902123175 0.011067680917831557 -0.063564679673615246 0.050099928196378478 -0.023690168809425358 -0.058881965771770711 -0.0065422286352663939 0.0022951765152500526 0.02152591720550618 0.027300926861219134 0.026952392734966437 0.016801946383217387 -0.071396288319713827 0.042847986305689117 -0.060876778353508854 0.034271235181729531 -0.002593213677571391 -0.0035469190695287972 0.019270368991082171 0.010827062288662344 0.034876045251785531 -0.010376885166893998 -0.082197658240575677 0.019646051381917745 -0.0055449358954916938 0.027895550723951213 -0.062064108539569285 0.025188328360527774 -0.012822869432037113 -0.040873277407072091 -0.0070515718825224297 0.044872436202246964 -0.026547739581799359 -0.057690685869181003 0.042316402478821361 -0.048046655567287821 -0.0101720356194631 -0.0089929711870874139 -0.025540173332467928 0 0.01536141319802941 0.0060768348593123779 -0.070437723916356651 -0.0024564008848909254 -0.060828170294513401 -0.047630680825042286 0.029931024632913906 0.0054759453021905116 -0.047640913104656762 -0.031500317449598809 -0.032654160183037441 -0.028834905121384286 0.020055852187188018 0.022082137313200034 -0.057454016951769916 -0.03381863885589434 0.046666430226918243 0.00066387160047055491 0.029567064389922994 -0.046936782407323026 -0.010103141721888288
leaf_weight=10073.033000906929 4545.0619370359927 160.74361923523247 485.61749829724431 158.6786551438272 1445.6161975506693 2458.9125901516527 785.99008046835661 382.91433533653617 1494.6066949218512 183.06730820052326 1674.4480636827648 2755.1075834501535 521.12349871173501 717.85711593367159 2480.9389996863902 742.33383933268487 286.99621379934251 287.40877605415881 79.707499606534839 332.36312684975564 634.16171214357018 221.85873018763959 751.73912230692804 403.12004501186311 154.76188635081053 1171.952335273847 935.90057929418981 229.61928161606193 2773.9899016283453 175.38061442784965 499.03189360536635 405.30248560383916 616.25399146229029 169.18703378736973 577.53872079774737 395.2031352892518 2573.9898513816297 1933.2586456779391 297.61785910464823 939.64025989919901 2386.4506780263036 74.812593774870038 55.254942717030644 217.54719043150544 165.13203512877226 1001.3503541257232 148.25030879862607 528.48564567230642 1060.8980651069432 277.55790240317583 3097.9484767559916 357.94854369014502 257.95501851476729 1383.5482666809112 595.93411591090262 394.74754459224641 279.99161291867495 757.39345470257103 948.09600628167391 506.3332756087184 187.23675475083292 2592.6012405809015 296.76679687947035
leaf_count=382495 161224 2423 6010 3778 13167 91894 14478 4139 32972 4203 44502 82887 15987 18357 18386 25156 3482 8617 2000 6547 15132 5906 25226 7450 1459 32222 19060 6159 26905 4878 9753 6218 15027 5857 9291 4704 90617 24112 6379 18271 36692 1224 1624 5647 1710 21592 1902 7175 34884 6036 34735 6328 4318 22253 17761 10756 4516 12366 33966 10580 5273 30646 7145
internal_value=0 -0.017671 -0.0261533 -0.0325666 -0.0203239 0.0378748 0.0243932 -0.0491765 -0.00464064 -0.0328047 0.00883794 0.0117133 -0.0130832 -0.0160317 -0.0542431 0.0133415 -0.0409409 -0.0110093 0.0206249 -0.00384334 -0.0177903 0.0376759 0.01744 -0.0182816 -0.0217596 0.00490451 0.0117405 -0.0113386 -0.0596918 -0.0183825 -0.040033 -0.00781171 0.0209254 0.0470151 -0.00790168 -0.0316789 0.037183 -0.0514098 -0.0431734 0.00228763 -0.0296919 -0.0257009 -0.0128934 -0.0252915 -0.0327149 -0.0143422 -0.03922 -0.0266291 0.0441937 -0.0222068 -0.0545911 -0.0485614 -0.0215175 -0.0356725 0.00612545 0.00544742 -0.0451023 -0.0265756 0.0426172 -0.0105349 0.0162441 -0.04481 0.00502507
internal_weight=0 43123.3 37401.1 31614.5 18221.3 22361 9060.78 13393.2 8089.72 10131.6 5786.58 5540.96 2975.65 1787.94 11605.3 3408.89 7155.98 2148.43 3638.15 1405.02 4680.82 5722.17 1177.1 1861.02 2454.52 2666.56 2610.35 1573.67 8352.88 1344.05 3252.38 2743.39 3967.3 13300.2 1375.41 1937.43 3227.18 3676.49 2230.88 1573.8 3479.49 687.167 425.364 1168.67 951.122 1941.81 203.505 3192.49 3519.81 2664.01 5871.94 512.71 1169.59 1778.75 1212.19 797.868 354.804 940.461 1027.8 764.288 653.191 2753.34 484.004
internal_count=1596459 829747 633865 492213 334582 766712 275325 157631 175604 158978 141652 148547 61935 34783 122848 90350 97043 42124 99528 30644 85254 195882 34658 33507 45948 65194 63562 32872 80026 26713 42822 54519 115675 491387 27497 30735 108892 43658 30491 33403 53385 12287 9432 21835 16188 38161 3526 49903 126778 42728 61640 7787 21116 26957 32788 18206 5740 16569 35966 14898 18275 33069 12418
is_linear=0
shrinkage=0.05


Tree=12
num_leaves=64
num_cat=0
split_feature=11 9 11 11 10 6 11 9 9 11 22 10 23 11 10 11 10 11 2 22 2 11 2 11 10 6 10 1 22 11 6 9 9 24 10 2 9 13 10 13 3 2 3 9 2 24 2 0 11 13 2 17 15 18 2 2 3 13 9 2 2 2 3
split_gain=92259.8 5455.32 3574.99 2635.49 799.122 1043.2 632.161 356.311 243.302 231.789 426.129 257.11 237.455 205.726 177.931 133.912 122.085 113.55 108.045 106.733 136.078 103.234 91.5502 83.9897 83.605 77.3185 67.8629 62.4361 54.8818 54.5927 53.1467 52.4215 51.3423 50.4052 48.8286 48.3488 46.2931 44.8551 44.2706 43.372 38.3515 121.186 70.9471 47.5188 53.5654 36.8941 30.7548 30.3819 28.8642 28.7562 27.8858 27.6136 27.4057 26.5174 25.1589 24.4994 24.2591 22.8931 22.6079 22.1966 22.0691 21.3531 60.6624
threshold=0.00073661240858693088 8.5000000000000018 0.00044971946688373735 0.00094900619094167497 687.50000000000011 0.94013321035826614 0.00062361111111111124 7.5000000000000009 9.5000000000000018 1.0000000180025095e-35 5.5000000000000009 237.50000000000003 25.500000000000004 0.00086300795978215344 237.50000000000003 0.00031291296190553882 262.50000000000006 0.00031291296190553882 0.93913894551071497 3.5000000000000004 0.85970715492245298 0.0010847390157734988 0.88714862820906459 0.00066796729840208114 612.50000000000011 0.92611184933736068 262.50000000000006 0.94949024291666217 3.5000000000000004 0.00053342816500711254 0.92611184933736068 7.5000000000000009 11.500000000000002 1.0000000180025095e-35 2062.5000000000005 0.91928879981653655 9.5000000000000018 915.50000000000011 512.50000000000011 1062.0000000000002 0.93953351507027383 0.93913894551071497 0.92333436663740065 12.500000000000002 0.88406088040005448 1.0000000180025095e-35 0.99155486690375527 0.979483751468471 0.0007870967741935485 1324.0000000000002 0.85970715492245298 32.500000000000007 70.500000000000014 4.5000000000000009 0.99155486690375527 0.99155486690375527 0.91706203854797608 299.00000000000006 12.500000000000002 0.96324663557258572 0.99155486690375527 0.95270377909255177 0.97444074757672228
decision_type=2 2 2 2 2 2 2 2 2 2 2 2 2 2 2 2 2 2 2 2 2 2 2 2 2 2 2 2 2 2 2 2 2 2 2 2 2 2 2 2 2 2 2 2 2 2 2 2 2 2 2 2 2 2 2 2 2 2 2 2 2 2 2
left_child=1 4 9 8 -1 31 14 18 -2 -3 11 -11 -12 26 -4 24 -8 22 51 25 -21 -5 34 35 36 37 -10 48 32 54 33 -6 -18 -17 -14 -9 -13 -16 -22 -33 42 -42 -26 -44 -45 -40 -32 53 -28 -37 -30 -7 -34 -38 -27 -46 57 -31 -36 -41 -55 -58 -63
right_child=3 2 6 21 5 7 16 23 13 10 12 15 17 -15 19 30 28 -19 -20 20 38 -23 -24 -25 40 29 27 -29 50 56 46 39 52 -35 58 49 47 -39 45 59 41 -43 43 44 55 -47 -48 -49 -50 -51 -52 -53 -54 60 -56 -57 61 -59 -60 -61 -62 62 -64
leaf_value=0.045066239329204227 0.037348187103877578 -0.1374494452373444 0.020441119514243471 0.03959149956687974 0.046806850426163019 -0.054618328114519048 0.023716022885160233 0.0017848653916150753 0.032895474325143365 0.011597169776627262 -0.11435598761514283 0 -0.10085772864980667 0.019530804199087398 -0.043721482225075096 -0.069717801402958898 -0.014534273906146315 0.017256265726580743 0.035309957223899568 0.032372690794590882 0.0065876461499002129 0.051410053077196462 0.01795598082340151 -0.0080985816289345352 -0.10959731123349195 -0.07739483860807693 -0.026536350476512777 0.00026199981148961 0.032305612638496649 0 -0.092920080792204873 0.021405936271725098 -0.017811094490402034 0 0.004032887203646837 -0.1122364284905375 -0.04944558314176898 0.01615057653960662 -0.06992784385122118 0.0023810316421915144 -0.021639037899768968 -0.11648661435538202 -0.05449019503599542 -0.069903657427875077 -0.099973161645209613 0 -0.012008680014724268 -0.040148295226791822 -0.0080658371713688802 0 -0.016481328396099615 0.0052974867483114403 -0.042820020024975113 -0.094651048947763189 0 0 -0.051870560944851207 -0.081137332011366914 -0.045607106427057467 -0.066737264057155271 0 -0.09023305702394166 -0.049799063880160657
leaf_weight=795.00346916913986 635.82987618073821 444.58378141373396 50.393919840455055 2353.5854658521712 281.85626902803779 72.150272238999605 75.859267167747021 5.1859781593084326 99.9766182359308 46.545139264315367 124.23376242443919 10.959528829902409 51.924261316657066 1326.3212359324098 214.38040909171104 262.84862443059683 252.39274751953781 72.778417147696018 70.097079571336508 55.023250818252563 19.14269507676363 34690.768373239785 39.745305791497231 30.792670041322708 2599.0033541545272 2224.4685881510377 418.72956075891852 1222.0228261388838 28.385303311049938 8.1850701794028264 4374.4969569817185 106.99637009575963 175.20209824666381 34.563285667449236 13.199401572346686 297.1646332256496 94.534907374531031 24.462937742471695 126.65217210352421 8.4450978040695208 45.959108173847198 2271.0574895478785 149.77672021836042 353.07992155104876 1932.8133422806859 19.916321028023958 22.099550601094961 68.862200535833836 551.57994865998626 8.927750136703251 102.6844948027283 13.550458054989575 1878.4232015088201 1393.1796032898128 15.366888247430323 2.8935786373913279 1094.8537553474307 346.64617737010121 314.17261116206646 15.825552063062785 3.378253921866416 247.47636365890503 309.56059736385942
leaf_count=28513 21347 1975 1277 67678 9314 1058 2183 92 3170 962 666 119 271 30827 1760 1390 4175 883 2179 884 289 1233016 412 720 11115 15752 6799 23630 402 70 24160 3139 2288 315 70 3203 568 270 1126 189 203 10403 745 1549 8472 364 236 542 10623 169 1633 234 23703 8031 187 32 9970 2766 1665 415 57 2475 3729
internal_value=0 -0.0773402 -0.0840189 0.0463957 0.0086136 -0.0230703 -0.0551222 -0.0713437 0.00902904 -0.098219 -0.096885 -0.0987657 -0.0538537 0.00389497 -0.065919 -0.0991695 -0.0344064 -0.0360984 -0.00623608 -0.0669382 -0.029035 0.0506768 -0.0461338 -0.0992678 -0.103394 -0.0686791 -0.00508881 -0.00707602 -0.0364073 -0.0703588 -0.0908802 0.034826 -0.0382012 -0.0624833 -0.0537805 -0.106976 -0.0894182 -0.036182 -0.0515298 0.00583865 -0.10622 -0.114814 -0.101998 -0.0933829 -0.0955711 -0.0606529 -0.0925983 -0.0901396 -0.0164811 -0.109607 -0.00260247 -0.0429689 -0.0409042 -0.0919989 -0.0769486 -0.0997411 -0.0625345 -0.0792382 -0.0428044 -0.0417152 -0.0943296 -0.0583408 -0.0694782
internal_weight=0 23702.2 21996.2 41298.8 1706 910.992 7269.48 497.869 4254.46 14726.7 14282.1 13666.1 616.054 3618.63 4756.53 13619.5 2512.95 491.82 155.798 4706.14 220.734 37044.4 419.042 342.071 8925.5 4485.4 2292.31 2192.33 2437.09 4246.56 4694.01 413.123 2306.02 297.412 379.296 311.278 1570.91 238.843 165.711 131.267 7354.58 2317.02 5037.57 2438.56 2288.79 146.568 4396.6 1559.95 970.31 306.092 131.07 85.7007 2053.63 1491.09 2239.84 1935.71 2006.72 354.831 327.372 24.2706 1396.56 1651.89 557.037
internal_count=1596459 199369 150144 1397090 49225 20712 75303 7655 96396 74841 72866 68899 3967 75049 40919 67937 34384 3301 3471 39642 2663 1300694 2418 4184 41836 36979 44222 41052 32201 34949 26101 13057 30166 1705 2006 3464 9317 2030 1779 3743 32519 10606 21913 10798 10053 1490 24396 9198 17422 3372 2035 1292 25991 8656 15939 8504 19010 2836 1735 604 8088 16174 6204
is_linear=0
shrinkage=0.05


Tree=13
num_leaves=64
num_cat=0
split_feature=10 9 0 4 10 10 9 2 4 2 4 3 10 1 3 0 9 10 6 9 3 1 1 1 1 2 9 0 2 10 2 20 10 4 1 2 10 20 3 2 3 10 3 3 14 3 2 3 20 21 22 10 15 3 3 2 23 12 1 2 1 0 1
split_gain=15642.4 6717.12 2649.77 1933.21 1128.76 1096.12 1000.82 629.795 623.963 476.864 470.525 421.738 337.249 257.783 247.56 241.369 226.974 221.377 272.564 215.621 199.946 193.843 187.905 181.361 176.052 165.012 163.323 161.126 160.352 157.155 152.511 152.316 125.327 120.827 119.957 115.864 113.976 109.608 108.099 146.782 127.627 106.126 139.812 103.592 102.026 100.606 259.329 177.238 92.5149 91.6612 89.1926 88.8803 85.8812 85.8586 115.484 78.1561 77.7641 76.9605 92.8425 75.7666 74.1018 88.5673 73.8416
threshold=487.50000000000006 8.5000000000000018 0.97144105711750395 0.93244248982950706 900.00000000000011 262.50000000000006 10.500000000000002 0.94380912176880594 0.93244248982950706 0.95417761697851633 0.93244248982950706 0.92333436663740065 900.00000000000011 0.97871344651136227 0.85984263776225089 0.99307561582971982 21.500000000000004 2912.5000000000005 0.94013321035826614 12.500000000000002 0.95316819169998868 0.94949024291666217 0.94949024291666217 0.94949024291666217 0.94949024291666217 0.88714862820906459 7.5000000000000009 0.97745507698670508 0.92310747734916088 1062.5000000000002 0.95532586956533405 1.0000000180025095e-35 1387.5000000000002 0.97102824610414362 0.95754375331593389 0.93913894551071497 1162.5000000000002 2.5000000000000004 0.98969501236963497 0.96490494291930473 0.9608065895462391 1387.5000000000002 0.98969501236963497 0.94976303837613407 24.500000000000004 0.93953351507027383 0.88714862820906459 0.95316819169998868 1.0000000180025095e-35 7.5000000000000009 2.5000000000000004 387.50000000000006 116.50000000000001 0.93091074186944511 0.95316819169998868 0.85970715492245298 44.500000000000007 9.5000000000000018 0.94949024291666217 0.94380912176880594 0.94949024291666217 0.91664028802177244 0.96496499698769511
decision_type=2 2 2 2 2 2 2 2 2 2 2 2 2 2 2 2 2 2 2 2 2 2 2 2 2 2 2 2 2 2 2 2 2 2 2 2 2 2 2 2 2 2 2 2 2 2 2 2 2 2 2 2 2 2 2 2 2 2 2 2 2 2 2
left_child=5 17 3 11 7 -1 -7 19 20 14 15 28 30 29 -6 25 41 56 -19 -5 27 49 37 38 -21 -4 -20 43 -3 -12 45 32 53 -18 35 -26 62 -10 39 40 -9 42 -11 59 -23 46 -13 50 -30 -16 -47 -24 -46 -14 -55 -15 -2 58 -33 60 61 -8 -27
right_child=1 2 10 4 9 6 8 23 22 16 13 12 31 55 21 -17 33 18 26 24 -22 44 51 -25 34 36 -28 -29 48 -31 -32 57 -34 -35 -36 -37 -38 -39 -40 -41 -42 -43 -44 -45 52 47 -48 -49 -50 -51 -52 -53 -54 54 -56 -57 -58 -59 -60 -61 -62 -63 -64
leaf_value=0.049842242027120016 0.046579450996813779 -0.061204584691454691 -0.040906619197678386 0.013458282003765396 -0.061264318720685433 0.04836923329090112 0.0053529438286483641 0.0078064365696302309 0.022285733995985369 0.0097443827015011777 0.020552798462263433 -0.036563612962114009 0.0089852009668230544 -0.0026714746081793446 -0.05228995850159545 0.033119114142359199 -0.072641500054527325 0.043252762746933369 0.020245452988577221 -0.031304594354090741 0.02327843660921294 0.0046600899464279205 0.040778867186710054 0.025458230892647944 0.016843480786323858 -0.0092998185485867555 -0.03008365096838227 0.026979291979394915 -0.00058621470865804007 -0.004994221628006305 -0.005912436032149756 -0.051686318760463451 -0.043633133004001151 -0.022513607794056822 -0.022200029394338891 -0.013567994386991428 -0.023734724852314312 0.00034807703262020213 -0.021628635798812301 0.027732777834963241 -0.032991070562284487 -0.017984350895522815 -0.035434331033127056 -0.04925360744858498 -0.035421957906485238 -0.049352664542427718 0.0090882361735406727 0 -0.04554180532671933 -0.033742392871793814 0.010287326488774916 0.023449266035621117 -0.017698158455610163 -0.050725008806424082 0.0016923983469938463 0.046142940728766305 0.030190507894402408 -0.057516282127909726 -0.032790561885851791 0.018468046462125864 -0.007391829409916029 -0.046651235380106335 0.02089434358735992
leaf_weight=9166.6757591217756 2978.7814216539264 3365.5939499251544 501.13179406896234 540.94025762751698 874.36410787142813 3635.939617825672 94.704798338934779 611.03256693296134 1633.915004119277 1255.1384497117251 1610.6844136733562 828.89107434079051 261.82052074745297 78.674220737069845 1259.2705528363585 269.11509156227112 184.34947076998651 509.03848944790661 300.07453223690391 1832.536445658654 437.54173923097551 277.15065708570182 1793.0993372853845 1492.7370350584388 566.80523732118309 403.50266699306667 321.48510115779936 196.4741793461144 194.84762016497552 931.04117301106453 838.41773294098675 1626.4651911575347 694.85317339189351 419.85659462958574 1115.6442687530071 674.67688244394958 586.92313642427325 907.42700449191034 373.73555541969836 569.85130982287228 264.67555314488709 926.80213647335768 186.96256511844695 246.44708110764623 1392.7831439599395 1260.2336196918041 477.2231713142246 243.39670277014375 314.63510862924159 1979.1099235136062 55.439265139400959 1530.1480870489031 1586.1720473840833 216.23543230257928 178.47076407261193 869.72961112298071 1211.6238723658025 1856.2915811110288 1416.2139442637563 147.3600920047611 695.01021975278854 327.09838578477502 377.13159216567874
leaf_count=382495 115911 28942 6010 13289 8556 146638 2096 15438 52245 31482 44502 9096 4637 2000 14325 8617 1914 18862 9237 26957 13158 5782 64342 45663 13750 7450 6559 5695 2611 19060 17308 15696 7171 8129 19221 12037 9291 24852 6981 17754 4514 17442 2968 3177 19678 14664 8567 4889 3331 24259 1144 48184 24443 2455 3569 33966 45313 17527 16024 3772 14478 5580 10756
internal_value=0 -0.0158914 -0.023293 -0.0288237 -0.0181611 0.0368711 0.0266051 -0.00406753 0.0166457 -0.0290826 0.0083146 -0.0429573 -0.0373577 0.0196325 -0.0359159 -0.0100517 -0.0119991 0.0366446 0.0164433 -0.0157847 -0.00631805 -0.0323758 0.0250824 0.01259 -0.0196429 -0.0165451 -0.00545425 -0.0141408 -0.0571434 0.011114 -0.0251291 -0.044512 -0.0288086 -0.0391488 -0.010377 0.000140406 -0.00720438 0.0145826 0.0018135 0.00815295 -0.00447528 -0.00483375 0.0035113 -0.0197957 -0.0234532 -0.0306253 -0.0197512 -0.0393917 -0.0291724 -0.0411705 -0.0465924 0.032969 -0.0261592 -0.0123243 -0.02695 0.0418471 0.0419834 -0.0487254 -0.0431094 -0.0135152 -0.0180836 -0.0345425 0.00505083
internal_weight=0 43162.6 37841.6 32213.6 18384.6 20811.8 11645.2 8042.64 8009.23 10342 5627.93 13829 9953.95 3490.13 7368.85 2137.8 2973.11 5321 1130.6 4730.6 2144.64 6494.49 5864.59 3312.03 4189.66 1868.69 621.56 1707.09 3875.08 2541.73 3703.6 6250.35 1351.38 604.206 2357.13 1241.48 1367.56 2541.34 1819.29 1445.56 875.708 2368.9 1442.1 1510.62 3256.11 2865.18 1306.11 1559.07 509.483 3238.38 1315.67 3323.25 2978.96 656.527 394.706 948.404 4190.41 4898.97 3042.68 1264.17 1116.81 421.803 780.634
internal_count=1596459 829747 633865 492213 334582 766712 384217 175604 237579 158978 141652 157631 122747 99528 97043 42124 61935 195882 34658 85254 47956 88487 189623 90350 71965 33507 15796 34798 34884 63562 55668 67079 17832 10043 45008 25787 27497 77097 44687 37706 19952 51892 34450 29103 49903 38360 17663 20697 5942 38584 15808 112526 44121 10661 6024 35966 161224 49247 31720 25926 22154 7676 18206
is_linear=0
shrinkage=0.05


Tree=14
num_leaves=64
num_cat=0
split_feature=11 9 11 11 4 6 11 9 11 22 9 23 11 11 11 11 2 22 2 11 2 5 11 22 6 9 11 23 9 6 21 15 13 23 9 2 2 26 13 5 24 2 15 15 4 2 1 9 1 4 13 6 1 1 2 3 3 2 24 15 21 2 9
